{"learner":{"attributes":{"scikit_learn":"{\"_estimator_type\": \"classifier\"}"},"feature_names":["home_form_goals","away_form_goals","home_win_rate","away_win_rate","elo_home","elo_away"],"feature_types":["float","float","float","float","float","float"],"gradient_booster":{"model":{"gbtree_model_param":{"num_parallel_tree":"1","num_trees":"600"},"iteration_indptr":[0,3,6,9,12,15,18,21,24,27,30,33,36,39,42,45,48,51,54,57,60,63,66,69,72,75,78,81,84,87,90,93,96,99,102,105,108,111,114,117,120,123,126,129,132,135,138,141,144,147,150,153,156,159,162,165,168,171,174,177,180,183,186,189,192,195,198,201,204,207,210,213,216,219,222,225,228,231,234,237,240,243,246,249,252,255,258,261,264,267,270,273,276,279,282,285,288,291,294,297,300,303,306,309,312,315,318,321,324,327,330,333,336,339,342,345,348,351,354,357,360,363,366,369,372,375,378,381,384,387,390,393,396,399,402,405,408,411,414,417,420,423,426,429,432,435,438,441,444,447,450,453,456,459,462,465,468,471,474,477,480,483,486,489,492,495,498,501,504,507,510,513,516,519,522,525,528,531,534,537,540,543,546,549,552,555,558,561,564,567,570,573,576,579,582,585,588,591,594,597,600],"tree_info":[0,1,2,0,1,2,0,1,2,0,1,2,0,1,2,0,1,2,0,1,2,0,1,2,0,1,2,0,1,2,0,1,2,0,1,2,0,1,2,0,1,2,0,1,2,0,1,2,0,1,2,0,1,2,0,1,2,0,1,2,0,1,2,0,1,2,0,1,2,0,1,2,0,1,2,0,1,2,0,1,2,0,1,2,0,1,2,0,1,2,0,1,2,0,1,2,0,1,2,0,1,2,0,1,2,0,1,2,0,1,2,0,1,2,0,1,2,0,1,2,0,1,2,0,1,2,0,1,2,0,1,2,0,1,2,0,1,2,0,1,2,0,1,2,0,1,2,0,1,2,0,1,2,0,1,2,0,1,2,0,1,2,0,1,2,0,1,2,0,1,2,0,1,2,0,1,2,0,1,2,0,1,2,0,1,2,0,1,2,0,1,2,0,1,2,0,1,2,0,1,2,0,1,2,0,1,2,0,1,2,0,1,2,0,1,2,0,1,2,0,1,2,0,1,2,0,1,2,0,1,2,0,1,2,0,1,2,0,1,2,0,1,2,0,1,2,0,1,2,0,1,2,0,1,2,0,1,2,0,1,2,0,1,2,0,1,2,0,1,2,0,1,2,0,1,2,0,1,2,0,1,2,0,1,2,0,1,2,0,1,2,0,1,2,0,1,2,0,1,2,0,1,2,0,1,2,0,1,2,0,1,2,0,1,2,0,1,2,0,1,2,0,1,2,0,1,2,0,1,2,0,1,2,0,1,2,0,1,2,0,1,2,0,1,2,0,1,2,0,1,2,0,1,2,0,1,2,0,1,2,0,1,2,0,1,2,0,1,2,0,1,2,0,1,2,0,1,2,0,1,2,0,1,2,0,1,2,0,1,2,0,1,2,0,1,2,0,1,2,0,1,2,0,1,2,0,1,2,0,1,2,0,1,2,0,1,2,0,1,2,0,1,2,0,1,2,0,1,2,0,1,2,0,1,2,0,1,2,0,1,2,0,1,2,0,1,2,0,1,2,0,1,2,0,1,2,0,1,2,0,1,2,0,1,2,0,1,2,0,1,2,0,1,2,0,1,2,0,1,2,0,1,2,0,1,2,0,1,2,0,1,2,0,1,2,0,1,2,0,1,2,0,1,2,0,1,2,0,1,2,0,1,2,0,1,2,0,1,2,0,1,2,0,1,2,0,1,2,0,1,2,0,1,2,0,1,2,0,1,2,0,1,2,0,1,2,0,1,2,0,1,2,0,1,2,0,1,2,0,1,2,0,1,2,0,1,2,0,1,2,0,1,2,0,1,2,0,1,2,0,1,2,0,1,2,0,1,2,0,1,2,0,1,2,0,1,2,0,1,2],"trees":[{"base_weights":[2.2973627E-1,1.06967025E-1,3.121719E-1,5.079009E-2,3.0120057E-1,2.994049E-1,5.6725734E-1,1.316321E-2,2.80736E-1,3.067558E-1,-3.7029292E-2,2.5234616E-1,3.4569815E-1,5.8552045E-1,-2.2291027E-1,-6.441486E-2,5.3216394E-2,5.037857E-1,2.458469E-1,1.9952358E-1,3.3362892E-1,2.2514865E-1,3.2320812E-1,3.2121417E-1,4.0743566E-1,4.0493575E-1,6.5767795E-1,-5.1111114E-1,-1.570685E-2,3.006105E-3,-4.4260253E-3,3.2616425E-3,-1.8239124E-2,3.4082767E-2,2.1631204E-2,1.2557457E-2,-3.640777E-2,2.8041992E-2,6.8571414E-3,1.8035108E-2,8.139613E-3,9.444892E-3,1.311228E-2,2.2396298E-2,1.4949687E-2,1.5115559E-2,2.0119775E-2,2.0434545E-2,-3.5106387E-2,2.2149257E-2,-1.286371E-2,5.121107E-2,3.111717E-2,-3.4962412E-2,-2.0284701E-2,-2.7272731E-2,1.4075065E-2],"categories":[],"categories_nodes":[],"categories_segments":[],"categories_sizes":[],"default_left":[0,0,0,0,0,0,0,0,0,0,0,0,0,0,0,0,0,0,0,0,0,0,0,0,0,0,0,0,0,0,0,0,0,0,0,0,0,0,0,0,0,0,0,0,0,0,0,0,0,0,0,0,0,0,0,0,0],"id":0,"left_children":[1,3,5,7,9,11,13,15,17,19,-1,21,23,25,27,29,31,33,35,37,39,41,43,45,47,49,51,53,55,-1,-1,-1,-1,-1,-1,-1,-1,-1,-1,-1,-1,-1,-1,-1,-1,-1,-1,-1,-1,-1,-1,-1,-1,-1,-1,-1,-1],"loss_changes":[1.6804395E3,7.278422E2,3.233496E2,4.4767856E2,8.683252E1,2.0601562E2,6.8444824E1,1.3817416E2,5.64989E1,4.282959E1,0E0,9.035425E1,7.195508E1,6.0029053E1,6.4214177E0,4.5460587E1,1.4732828E2,1.2150253E1,3.268689E1,6.721256E1,5.4986694E1,4.5551636E1,3.9159546E1,5.2286133E1,1.9143066E1,3.346599E1,4.216211E1,6.08798E-1,1.0177567E1,0E0,0E0,0E0,0E0,0E0,0E0,0E0,0E0,0E0,0E0,0E0,0E0,0E0,0E0,0E0,0E0,0E0,0E0,0E0,0E0,0E0,0E0,0E0,0E0,0E0,0E0,0E0,0E0],"parents":[2147483647,0,0,1,1,2,2,3,3,4,4,5,5,6,6,7,7,8,8,9,9,11,11,12,12,13,13,14,14,15,15,16,16,17,17,18,18,19,19,20,20,21,21,22,22,23,23,24,24,25,25,26,26,27,27,28,28],"right_children":[2,4,6,8,10,12,14,16,18,20,-1,22,24,26,28,30,32,34,36,38,40,42,44,46,48,50,52,54,56,-1,-1,-1,-1,-1,-1,-1,-1,-1,-1,-1,-1,-1,-1,-1,-1,-1,-1,-1,-1,-1,-1,-1,-1,-1,-1,-1,-1],"split_conditions":[4E-1,2E0,1E0,2E0,3.3333334E-1,5E-1,5E0,2E-1,2E-1,2.2E0,-3.7029292E-2,2E0,2.2E0,1E0,5.2E0,2E-1,2.5E-1,2.4E0,3.3333334E-1,8E-1,3.8E0,1.2E0,1E0,2.2E0,7E0,4.4E0,1.2E0,1.6680477E3,1E0,3.006105E-3,-4.4260253E-3,3.2616425E-3,-1.8239124E-2,3.4082767E-2,2.1631204E-2,1.2557457E-2,-3.640777E-2,2.8041992E-2,6.8571414E-3,1.8035108E-2,8.139613E-3,9.444892E-3,1.311228E-2,2.2396298E-2,1.4949687E-2,1.5115559E-2,2.0119775E-2,2.0434545E-2,-3.5106387E-2,2.2149257E-2,-1.286371E-2,5.121107E-2,3.111717E-2,-3.4962412E-2,-2.0284701E-2,-2.7272731E-2,1.4075065E-2],"split_indices":[2,0,2,1,2,2,1,2,0,0,0,1,0,1,1,0,2,1,2,1,0,0,0,1,0,0,1,4,0,0,0,0,0,0,0,0,0,0,0,0,0,0,0,0,0,0,0,0,0,0,0,0,0,0,0,0,0],"split_type":[0,0,0,0,0,0,0,0,0,0,0,0,0,0,0,0,0,0,0,0,0,0,0,0,0,0,0,0,0,0,0,0,0,0,0,0,0,0,0,0,0,0,0,0,0,0,0,0,0,0,0,0,0,0,0,0,0],"sum_hessian":[1.6604444E5,6.670488E4,9.933955E4,5.1741332E4,1.4963555E4,9.4606664E4,4.7328887E3,4.446622E4,7.275111E3,1.4884888E4,7.8666664E1,4.6918664E4,4.7687996E4,4.626222E3,1.0666666E2,1.5140443E4,2.9325775E4,9.8222217E2,6.2928887E3,2.9844443E3,1.1900443E4,3.390844E4,1.3010222E4,3.4150664E4,1.3537333E4,1.3226666E3,3.3035554E3,4.3999996E1,6.2666664E1,2.455111E3,1.2685333E4,2.850711E4,8.186666E2,2.782222E2,7.0399994E2,6.259555E3,3.3333332E1,4.382222E2,2.5462222E3,1.0271555E4,1.6288888E3,1.7152889E4,1.6755555E4,2.1124443E3,1.0897777E4,2.7704443E4,6.4462217E3,1.3522666E4,1.4666666E1,1.2511111E3,7.155555E1,2.8799997E2,3.0155554E3,1.3777777E1,3.0222221E1,2.2222221E1,4.0444443E1],"tree_param":{"num_deleted":"0","num_feature":"6","num_nodes":"57","size_leaf_vector":"1"}},{"base_weights":[-2.3233038E-1,-1.3723442E-1,-4.417324E-1,-7.343765E-2,-3.3160806E-1,-3.5479528E-1,-5.8874303E-1,1.47386E-2,-2.025062E-1,-2.69028E-1,-4.316406E-1,-3.272326E-1,-4.300287E-1,-5.366953E-1,-3.749202E-2,8.7113164E-2,-2.339071E-2,-2.543719E-1,-1.6337012E-1,-2.7269918E-1,3.162743E-1,-4.3940634E-1,6.995515E-1,-4.096687E-1,-2.7532163E-1,-3.966209E-1,-4.8143357E-1,-5.133653E-1,-6.785038E-1,-1.7229401E-3,5.54068E-3,-1.4024087E-3,1.9716611E-2,-1.6390996E-2,-1.1750773E-2,8.380375E-4,-1.1605593E-2,-1.14610335E-2,-1.6087681E-2,9.360372E-3,2.7391303E-2,-2.2058418E-2,6.8041235E-2,2.827225E-2,6.857143E-2,-2.2441326E-2,-1.9906348E-2,-1.4422849E-2,-9.857078E-3,-2.0599863E-2,-1.8811043E-2,-2.467366E-2,-4.7619073E-3,-2.8332507E-2,-2.4501605E-2,-3.2341357E-2,-3.676179E-2],"categories":[],"categories_nodes":[],"categories_segments":[],"categories_sizes":[],"default_left":[0,0,0,0,0,0,0,0,0,0,0,0,0,0,0,0,0,0,0,0,0,0,0,0,0,0,0,0,0,0,0,0,0,0,0,0,0,0,0,0,0,0,0,0,0,0,0,0,0,0,0,0,0,0,0,0,0],"id":1,"left_children":[1,3,5,7,9,11,13,15,17,19,21,23,25,27,-1,29,31,33,35,37,39,41,43,45,47,49,51,53,55,-1,-1,-1,-1,-1,-1,-1,-1,-1,-1,-1,-1,-1,-1,-1,-1,-1,-1,-1,-1,-1,-1,-1,-1,-1,-1,-1,-1],"loss_changes":[3.3027578E3,1.4144009E3,6.6181055E2,9.773602E2,1.7632861E2,6.736035E1,1.6098047E2,1.4080287E2,7.071106E1,3.734851E1,9.5579834E1,1.0185547E2,1.4792725E1,4.7791992E1,0E0,5.073053E1,6.502653E1,2.1232239E1,2.4603198E2,3.6683105E1,3.141697E0,3.4769287E1,5.9221954E0,3.9814453E0,1.496106E1,1.5055542E0,1.5911011E1,1.5262695E1,3.2129517E0,0E0,0E0,0E0,0E0,0E0,0E0,0E0,0E0,0E0,0E0,0E0,0E0,0E0,0E0,0E0,0E0,0E0,0E0,0E0,0E0,0E0,0E0,0E0,0E0,0E0,0E0,0E0,0E0],"parents":[2147483647,0,0,1,1,2,2,3,3,4,4,5,5,6,6,7,7,8,8,9,9,10,10,11,11,12,12,13,13,15,15,16,16,17,17,18,18,19,19,20,20,21,21,22,22,23,23,24,24,25,25,26,26,27,27,28,28],"right_children":[2,4,6,8,10,12,14,16,18,20,22,24,26,28,-1,30,32,34,36,38,40,42,44,46,48,50,52,54,56,-1,-1,-1,-1,-1,-1,-1,-1,-1,-1,-1,-1,-1,-1,-1,-1,-1,-1,-1,-1,-1,-1,-1,-1,-1,-1,-1,-1],"split_conditions":[6E-1,2E0,6.666667E-1,3.3333334E-1,2.8E0,2.2E0,1E0,2E-1,1E0,5E-1,5E-1,1E0,3E0,3E0,-3.749202E-2,2E-1,2.5E-1,2E-1,1.2E0,3.3333334E-1,1.7433027E3,7.8E0,4E0,2E-1,2E0,1.7166879E3,5.2E0,1E0,4E0,-1.7229401E-3,5.54068E-3,-1.4024087E-3,1.9716611E-2,-1.6390996E-2,-1.1750773E-2,8.380375E-4,-1.1605593E-2,-1.14610335E-2,-1.6087681E-2,9.360372E-3,2.7391303E-2,-2.2058418E-2,6.8041235E-2,2.827225E-2,6.857143E-2,-2.2441326E-2,-1.9906348E-2,-1.4422849E-2,-9.857078E-3,-2.0599863E-2,-1.8811043E-2,-2.467366E-2,-4.7619073E-3,-2.8332507E-2,-2.4501605E-2,-3.2341357E-2,-3.676179E-2],"split_indices":[3,0,3,3,0,0,3,3,0,3,3,0,0,0,0,0,3,0,0,3,4,0,0,0,0,5,0,0,0,0,0,0,0,0,0,0,0,0,0,0,0,0,0,0,0,0,0,0,0,0,0,0,0,0,0,0,0],"split_type":[0,0,0,0,0,0,0,0,0,0,0,0,0,0,0,0,0,0,0,0,0,0,0,0,0,0,0,0,0,0,0,0,0,0,0,0,0,0,0,0,0,0,0,0,0,0,0,0,0,0,0,0,0,0,0,0,0],"sum_hessian":[1.658591E5,1.1406177E5,5.1797332E4,8.587688E4,2.8184887E4,3.255111E4,1.924622E4,5.1021332E4,3.4855555E4,1.7340443E4,1.0844443E4,2.382711E4,8.723999E3,1.4549777E4,4.6964443E3,1.7604443E4,3.3416887E4,1.4987555E4,1.9867998E4,1.7232889E4,1.0755555E2,1.077111E4,7.333333E1,9.203999E3,1.462311E4,5.2928887E3,3.4311108E3,1.2498222E4,2.0515554E3,2.8719998E3,1.4732443E4,3.3049332E4,3.6755554E2,3.1226665E3,1.1864888E4,5.4879995E3,1.4379999E4,9.138666E3,8.0942217E3,7.022222E1,3.7333332E1,1.0761333E4,9.777777E0,6.2666664E1,1.0666666E1,2.0866665E3,7.117333E3,1.2517333E4,2.1057776E3,3.0071108E3,2.2857776E3,3.3271108E3,1.0399999E2,3.7991108E3,8.69911E3,1.3244443E3,7.271111E2],"tree_param":{"num_deleted":"0","num_feature":"6","num_nodes":"57","size_leaf_vector":"1"}},{"base_weights":[-3.9716062E-4,-2.5776058E-2,1.9344105E-1,-3.9419454E-2,1.3581142E-1,3.16517E-1,1.4861402E-1,-6.9927275E-2,-1.3801595E-2,3.555912E-1,1.00312345E-1,6.992482E-2,3.1333372E-1,1.2878394E-1,4.3546614E-1,-6.823011E-2,-2.9846385E-1,8.24642E-1,-2.1017173E-2,1.6216213E-1,6.233961E-1,3.0431578E-1,5.8952723E-2,-3.571429E-2,3.1750175E-1,6.021003E-1,1.253339E-1,4.1644955E-1,7.058824E-2,-4.254969E-3,-2.4201667E-3,3.0653952E-2,-3.1555336E-2,3.615009E-2,7.4098796E-2,4.469199E-3,-1.4692837E-3,3.5338642E-3,9.921099E-3,2.8469712E-2,4.0689655E-2,2.2337325E-2,1.3350188E-2,3.5512752E-3,-1.5639814E-2,1.600801E-2,7.5305267E-3,2.7675275E-2,6.2264152E-2,-3.5635363E-2,6.330633E-3,2.9606987E-2,1.9342959E-2],"categories":[],"categories_nodes":[],"categories_segments":[],"categories_sizes":[],"default_left":[0,0,0,0,0,0,0,0,0,0,0,0,0,0,0,0,0,0,0,0,0,0,0,0,0,0,0,0,0,0,0,0,0,0,0,0,0,0,0,0,0,0,0,0,0,0,0,0,0,0,0,0,0],"id":2,"left_children":[1,3,5,7,9,11,13,15,17,19,21,-1,23,25,27,29,31,33,35,37,39,41,43,-1,45,47,49,51,-1,-1,-1,-1,-1,-1,-1,-1,-1,-1,-1,-1,-1,-1,-1,-1,-1,-1,-1,-1,-1,-1,-1,-1,-1],"loss_changes":[8.176011E2,3.2398993E2,1.0610803E2,1.0591168E2,8.92372E1,1.725177E1,8.01824E1,2.3970947E1,4.4566913E2,8.230321E1,8.311303E1,0E0,2.2166473E1,2.1471863E1,1.6337982E1,2.0531982E1,1.3855334E2,4.092331E1,6.747969E1,3.0544128E0,6.392273E0,8.705536E0,3.679278E1,0E0,2.2155762E0,2.28693E0,1.4129974E1,4.4272614E0,0E0,0E0,0E0,0E0,0E0,0E0,0E0,0E0,0E0,0E0,0E0,0E0,0E0,0E0,0E0,0E0,0E0,0E0,0E0,0E0,0E0,0E0,0E0,0E0,0E0],"parents":[2147483647,0,0,1,1,2,2,3,3,4,4,5,5,6,6,7,7,8,8,9,9,10,10,12,12,13,13,14,14,15,15,16,16,17,17,18,18,19,19,20,20,21,21,22,22,24,24,25,25,26,26,27,27],"right_children":[2,4,6,8,10,12,14,16,18,20,22,-1,24,26,28,30,32,34,36,38,40,42,44,-1,46,48,50,52,-1,-1,-1,-1,-1,-1,-1,-1,-1,-1,-1,-1,-1,-1,-1,-1,-1,-1,-1,-1,-1,-1,-1,-1,-1],"split_conditions":[6.666667E-1,3E0,1E0,3.3333334E-1,2E-1,7.5E-1,4.2E0,2.5E-1,4E-1,3.8E0,3.2E0,6.992482E-2,8E-1,7.5E-1,6.4E0,1.2E0,1E0,2E0,2E-1,3.2E0,5E0,1.6182017E3,5.4E0,-3.571429E-2,1.9155931E3,3E0,8E-1,1.5973789E3,7.058824E-2,-4.254969E-3,-2.4201667E-3,3.0653952E-2,-3.1555336E-2,3.615009E-2,7.4098796E-2,4.469199E-3,-1.4692837E-3,3.5338642E-3,9.921099E-3,2.8469712E-2,4.0689655E-2,2.2337325E-2,1.3350188E-2,3.5512752E-3,-1.5639814E-2,1.600801E-2,7.5305267E-3,2.7675275E-2,6.2264152E-2,-3.5635363E-2,6.330633E-3,2.9606987E-2,1.9342959E-2],"split_indices":[2,0,0,2,2,2,0,2,2,0,0,0,2,2,0,0,0,0,0,0,0,5,0,0,5,0,2,4,0,0,0,0,0,0,0,0,0,0,0,0,0,0,0,0,0,0,0,0,0,0,0,0,0],"split_type":[0,0,0,0,0,0,0,0,0,0,0,0,0,0,0,0,0,0,0,0,0,0,0,0,0,0,0,0,0,0,0,0,0,0,0,0,0,0,0,0,0,0,0,0,0,0,0,0,0,0,0,0,0],"sum_hessian":[1.6619733E5,1.4695733E5,1.9239998E4,1.3551598E5,1.1441333E4,5.135111E3,1.4104888E4,6.1853773E4,7.366222E4,1.5897777E3,9.851555E3,1.3777777E1,5.121333E3,1.3194222E4,9.106666E2,6.139911E4,4.5466663E2,6.2755554E2,7.3034664E4,9.2399994E2,6.657777E2,1.6595554E3,8.1919995E3,1.9999998E1,5.101333E3,9.422221E1,1.3099999E4,8.946666E2,1.5999999E1,3.3171996E4,2.822711E4,1.2133333E2,3.333333E2,5.453333E2,8.222221E1,5.145333E3,6.788933E4,2.6311108E2,6.6088885E2,5.217778E2,1.4399998E2,3.422222E2,1.3173333E3,7.935111E3,2.568889E2,5.0204443E3,8.0888885E1,8.933333E1,4.8888884E0,1.911111E1,1.3080888E4,1.2622221E2,7.684444E2],"tree_param":{"num_deleted":"0","num_feature":"6","num_nodes":"53","size_leaf_vector":"1"}},{"base_weights":[2.1877648E-1,9.868324E-2,2.991125E-1,4.6615463E-2,2.773961E-1,2.8666636E-1,5.465436E-1,-2.5511144E-2,8.3791904E-2,2.8297132E-1,-3.6440495E-2,2.4142429E-1,3.3103207E-1,5.634299E-1,-1.6031806E-1,1.0604302E-1,-5.103102E-2,9.546364E-2,-3.3712566E-1,1.7095137E-1,3.1122908E-1,2.1500778E-1,3.100077E-1,3.104445E-1,3.8285428E-1,3.9000794E-1,6.3395035E-1,-5.365537E-1,1.3797687E-1,3.8449138E-3,6.7032613E-3,-4.2556254E-3,2.3417434E-4,6.885608E-3,2.7485765E-3,7.1440116E-2,-1.889014E-2,7.0565427E-3,1.06987655E-2,1.6118843E-2,-4.4940934E-3,1.2034315E-2,9.772201E-3,1.7380055E-2,1.3759312E-2,2.8960427E-2,1.5328491E-2,1.9190153E-2,-3.4305878E-2,1.6289392E-2,2.235547E-2,4.8689958E-2,3.0114735E-2,-2.3842968E-4,-2.7555509E-2,3.2775152E-2,2.560237E-3],"categories":[],"categories_nodes":[],"categories_segments":[],"categories_sizes":[],"default_left":[0,0,0,0,0,0,0,0,0,0,0,0,0,0,0,0,0,0,0,0,0,0,0,0,0,0,0,0,0,0,0,0,0,0,0,0,0,0,0,0,0,0,0,0,0,0,0,0,0,0,0,0,0,0,0,0,0],"id":3,"left_children":[1,3,5,7,9,11,13,15,17,19,-1,21,23,25,27,29,31,33,35,37,39,41,43,45,47,49,51,53,55,-1,-1,-1,-1,-1,-1,-1,-1,-1,-1,-1,-1,-1,-1,-1,-1,-1,-1,-1,-1,-1,-1,-1,-1,-1,-1,-1,-1],"loss_changes":[1.6113066E3,6.229195E2,3.0802148E2,1.390121E2,8.493445E1,1.9116895E2,5.7284058E1,5.92052E1,1.6809877E2,4.7494995E1,0E0,8.5407715E1,5.1202637E1,5.698828E1,1.2708174E1,2.329731E0,2.8044655E1,5.6938263E1,6.685843E1,3.8548203E0,5.3659912E1,1.7065186E1,1.7074707E1,3.56792E1,1.4129639E1,4.8251343E0,3.5189575E1,3.8432503E-1,2.8219075E0,0E0,0E0,0E0,0E0,0E0,0E0,0E0,0E0,0E0,0E0,0E0,0E0,0E0,0E0,0E0,0E0,0E0,0E0,0E0,0E0,0E0,0E0,0E0,0E0,0E0,0E0,0E0,0E0],"parents":[2147483647,0,0,1,1,2,2,3,3,4,4,5,5,6,6,7,7,8,8,9,9,11,11,12,12,13,13,14,14,15,15,16,16,17,17,18,18,19,19,20,20,21,21,22,22,23,23,24,24,25,25,26,26,27,27,28,28],"right_children":[2,4,6,8,10,12,14,16,18,20,-1,22,24,26,28,30,32,34,36,38,40,42,44,46,48,50,52,54,56,-1,-1,-1,-1,-1,-1,-1,-1,-1,-1,-1,-1,-1,-1,-1,-1,-1,-1,-1,-1,-1,-1,-1,-1,-1,-1,-1,-1],"split_conditions":[4E-1,2E0,1E0,2E-1,3.3333334E-1,5E-1,5E0,2E-1,2.5E-1,2.2E0,-3.6440495E-2,2E0,2.2E0,1E0,5.2E0,1.6988307E3,1.2E0,1E0,2E-1,1.7244747E3,5E0,1E0,2.6E0,6E-1,7E0,4E-1,1.2E0,1.5189805E3,1.5957007E3,3.8449138E-3,6.7032613E-3,-4.2556254E-3,2.3417434E-4,6.885608E-3,2.7485765E-3,7.1440116E-2,-1.889014E-2,7.0565427E-3,1.06987655E-2,1.6118843E-2,-4.4940934E-3,1.2034315E-2,9.772201E-3,1.7380055E-2,1.3759312E-2,2.8960427E-2,1.5328491E-2,1.9190153E-2,-3.4305878E-2,1.6289392E-2,2.235547E-2,4.8689958E-2,3.0114735E-2,-2.3842968E-4,-2.7555509E-2,3.2775152E-2,2.560237E-3],"split_indices":[3,0,3,3,3,3,0,0,3,0,0,0,0,0,0,4,0,0,0,4,0,0,0,3,0,0,0,4,4,0,0,0,0,0,0,0,0,0,0,0,0,0,0,0,0,0,0,0,0,0,0,0,0,0,0,0,0],"split_type":[0,0,0,0,0,0,0,0,0,0,0,0,0,0,0,0,0,0,0,0,0,0,0,0,0,0,0,0,0,0,0,0,0,0,0,0,0,0,0,0,0,0,0,0,0,0,0,0,0,0,0,0,0,0,0,0,0],"sum_hessian":[1.6701466E5,6.694368E4,1.0007098E5,5.18411E4,1.5102578E4,9.528039E4,4.7905845E3,1.763244E4,3.420866E4,1.5020073E4,8.2504906E1,4.7177465E4,4.8102926E4,4.6790103E3,1.1157448E2,2.864236E3,1.4768202E4,3.3286426E4,9.222351E2,3.0270862E3,1.1992987E4,3.406187E4,1.3115597E4,3.443129E4,1.3671639E4,1.3545261E3,3.3244841E3,4.898791E1,6.2586567E1,1.405832E3,1.458404E3,9.162699E3,5.605503E3,1.6288738E4,1.6997688E4,1.9996489E1,9.0223865E2,1.7904089E3,1.2366774E3,1.166888E4,3.2410773E2,1.4724218E4,1.9337652E4,6.302457E3,6.813139E3,4.8721982E2,3.394407E4,1.3660156E4,1.1482682E1,6.4068E2,7.138462E2,2.8074084E2,3.0437432E3,1.3405848E0,4.7647327E1,8.045759E0,5.4540806E1],"tree_param":{"num_deleted":"0","num_feature":"6","num_nodes":"57","size_leaf_vector":"1"}},{"base_weights":[-2.237534E-1,-1.3089819E-1,-4.299668E-1,-6.823753E-2,-3.2243624E-1,-3.429964E-1,-5.783936E-1,-1.6148487E-2,-3.6427706E-1,-4.9201494E-1,-2.6386565E-1,-3.1344247E-1,-4.2403877E-1,-5.265211E-1,-3.6876153E-2,7.889115E-2,-1.5939596E-1,-4.8748994E-1,-2.0968466E-1,-6.2044394E-1,-4.3983832E-1,-1.1456059E-1,-3.016835E-1,-4.0013993E-1,-2.596236E-1,-5.5511016E-1,-3.832354E-1,-5.0438404E-1,-6.6107106E-1,7.576395E-3,2.030678E-3,-1.376046E-2,-7.368646E-3,-3.0722693E-2,-2.1849388E-2,-7.175205E-3,-2.2495057E-2,-3.1133374E-2,3.2927275E-2,-2.048806E-2,-3.1602878E-2,8.468767E-5,-1.2295896E-2,-1.5489489E-2,3.0847041E-2,-1.7965892E-2,-2.7928045E-2,-1.8516239E-2,-1.1738631E-2,-2.3497095E-2,-3.14473E-2,-1.942358E-2,2.7860783E-3,-2.4341527E-2,-3.122454E-2,-3.1003905E-2,-3.565041E-2],"categories":[],"categories_nodes":[],"categories_segments":[],"categories_sizes":[],"default_left":[0,0,0,0,0,0,0,0,0,0,0,0,0,0,0,0,0,0,0,0,0,0,0,0,0,0,0,0,0,0,0,0,0,0,0,0,0,0,0,0,0,0,0,0,0,0,0,0,0,0,0,0,0,0,0,0,0],"id":4,"left_children":[1,3,5,7,9,11,13,15,17,19,21,23,25,27,-1,29,31,33,35,37,39,41,43,45,47,49,51,53,55,-1,-1,-1,-1,-1,-1,-1,-1,-1,-1,-1,-1,-1,-1,-1,-1,-1,-1,-1,-1,-1,-1,-1,-1,-1,-1,-1,-1],"loss_changes":[3.1603418E3,1.3658826E3,6.613086E2,1.322369E3,2.7850732E2,7.726343E1,1.5588184E2,9.928235E2,2.4430151E2,4.7979248E1,1.1771411E2,1.103999E2,4.5954224E1,4.220288E1,0E0,1.2188406E2,4.0459656E1,4.55094E1,9.043495E1,6.319275E0,2.936444E1,6.438532E1,1.24092896E2,5.8448853E1,4.0119446E1,1.2577515E1,1.5159851E1,2.555957E1,3.8466797E0,0E0,0E0,0E0,0E0,0E0,0E0,0E0,0E0,0E0,0E0,0E0,0E0,0E0,0E0,0E0,0E0,0E0,0E0,0E0,0E0,0E0,0E0,0E0,0E0,0E0,0E0,0E0,0E0],"parents":[2147483647,0,0,1,1,2,2,3,3,4,4,5,5,6,6,7,7,8,8,9,9,10,10,11,11,12,12,13,13,15,15,16,16,17,17,18,18,19,19,20,20,21,21,22,22,23,23,24,24,25,25,26,26,27,27,28,28],"right_children":[2,4,6,8,10,12,14,16,18,20,22,24,26,28,-1,30,32,34,36,38,40,42,44,46,48,50,52,54,56,-1,-1,-1,-1,-1,-1,-1,-1,-1,-1,-1,-1,-1,-1,-1,-1,-1,-1,-1,-1,-1,-1,-1,-1,-1,-1,-1,-1],"split_conditions":[6E-1,2E0,6.666667E-1,2E0,1.2E0,2.2E0,1E0,3.3333334E-1,1.2E0,4E-1,2.2E0,1E0,1.2E0,3E0,-3.6876153E-2,2E-1,2E-1,4E-1,3E0,5E-1,3.6E0,2.5E-1,5E-1,2E0,1E0,2.8E0,5.2E0,2.8E0,3.8E0,7.576395E-3,2.030678E-3,-1.376046E-2,-7.368646E-3,-3.0722693E-2,-2.1849388E-2,-7.175205E-3,-2.2495057E-2,-3.1133374E-2,3.2927275E-2,-2.048806E-2,-3.1602878E-2,8.468767E-5,-1.2295896E-2,-1.5489489E-2,3.0847041E-2,-1.7965892E-2,-2.7928045E-2,-1.8516239E-2,-1.1738631E-2,-2.3497095E-2,-3.14473E-2,-1.942358E-2,2.7860783E-3,-2.4341527E-2,-3.122454E-2,-3.1003905E-2,-3.565041E-2],"split_indices":[3,1,3,0,0,1,3,3,1,0,1,1,0,0,0,3,0,1,0,3,1,3,3,0,0,1,1,1,0,0,0,0,0,0,0,0,0,0,0,0,0,0,0,0,0,0,0,0,0,0,0,0,0,0,0,0,0],"split_type":[0,0,0,0,0,0,0,0,0,0,0,0,0,0,0,0,0,0,0,0,0,0,0,0,0,0,0,0,0,0,0,0,0,0,0,0,0,0,0,0,0,0,0,0,0,0,0,0,0,0,0,0,0,0,0,0,0],"sum_hessian":[1.6505023E5,1.1380636E5,5.1243875E4,8.575381E4,2.805255E4,3.2313277E4,1.8930598E4,7.292372E4,1.2830093E4,7.199764E3,2.0852787E4,2.3681982E4,8.631296E3,1.4279964E4,4.6506333E3,4.3838727E4,2.9084994E4,7.138461E3,5.6916313E3,2.0768518E3,5.1229126E3,4.2151943E3,1.6637592E4,9.067923E3,1.4614059E4,2.0460927E3,6.585203E3,1.2266543E4,2.0134205E3,1.5128138E4,2.8710588E4,2.7333975E3,2.6351596E4,2.0282396E3,5.110221E3,4.4635137E3,1.2281179E3,2.0737595E3,3.092101E0,4.4324805E3,6.904321E2,2.2366729E3,1.9785214E3,1.6492717E4,1.4487544E2,7.2126313E3,1.855291E3,2.6766697E3,1.193739E4,9.535519E2,1.0925408E3,6.5076895E3,7.751387E1,1.0706805E4,1.5597383E3,1.1324998E3,8.809208E2],"tree_param":{"num_deleted":"0","num_feature":"6","num_nodes":"57","size_leaf_vector":"1"}},{"base_weights":[1.4245519E-3,-2.2872647E-2,1.8639262E-1,-3.6968697E-2,1.437674E-1,2.9098666E-1,1.4840549E-1,-6.905269E-2,-1.0032976E-2,3.7144926E-1,1.0749985E-1,6.7656435E-2,2.8772312E-1,1.3086951E-1,4.0660733E-1,-6.755921E-2,-2.7711442E-1,7.771095E-1,-1.6850883E-2,1.9911563E-1,6.038881E-1,2.8429788E-1,7.127561E-2,-3.5054617E-2,2.912591E-1,5.589236E-1,1.2790519E-1,3.877102E-1,6.9113106E-2,-4.179159E-3,-2.43465E-3,2.9578721E-2,-3.0198744E-2,3.3731263E-2,7.0079885E-2,4.8900065E-3,-1.2825303E-3,6.2500346E-3,1.1405076E-2,2.70557E-2,4.110932E-2,1.6634088E-2,1.0101186E-2,4.1494756E-3,-1.51082E-2,1.5337045E-2,1.2768884E-2,2.4019932E-2,4.5629404E-2,-3.5037395E-2,6.45321E-3,2.1163795E-2,1.224622E-2],"categories":[],"categories_nodes":[],"categories_segments":[],"categories_sizes":[],"default_left":[0,0,0,0,0,0,0,0,0,0,0,0,0,0,0,0,0,0,0,0,0,0,0,0,0,0,0,0,0,0,0,0,0,0,0,0,0,0,0,0,0,0,0,0,0,0,0,0,0,0,0,0,0],"id":5,"left_children":[1,3,5,7,9,11,13,15,17,19,21,-1,23,25,27,29,31,33,35,37,39,41,43,-1,45,47,49,51,-1,-1,-1,-1,-1,-1,-1,-1,-1,-1,-1,-1,-1,-1,-1,-1,-1,-1,-1,-1,-1,-1,-1,-1,-1],"loss_changes":[7.468912E2,3.4505447E2,7.662341E1,1.1704573E2,9.456444E1,1.7427124E1,6.404712E1,1.9188416E1,3.9514655E2,6.292154E1,6.328076E1,0E0,1.8124817E1,1.6751572E1,1.6054901E1,1.8549591E1,1.2534896E2,3.952014E1,7.364806E1,1.9162025E0,8.730392E0,6.622162E0,3.5915558E1,0E0,2.7591248E0,2.0856228E0,1.2737366E1,4.386307E0,0E0,0E0,0E0,0E0,0E0,0E0,0E0,0E0,0E0,0E0,0E0,0E0,0E0,0E0,0E0,0E0,0E0,0E0,0E0,0E0,0E0,0E0,0E0,0E0,0E0],"parents":[2147483647,0,0,1,1,2,2,3,3,4,4,5,5,6,6,7,7,8,8,9,9,10,10,12,12,13,13,14,14,15,15,16,16,17,17,18,18,19,19,20,20,21,21,22,22,24,24,25,25,26,26,27,27],"right_children":[2,4,6,8,10,12,14,16,18,20,22,-1,24,26,28,30,32,34,36,38,40,42,44,-1,46,48,50,52,-1,-1,-1,-1,-1,-1,-1,-1,-1,-1,-1,-1,-1,-1,-1,-1,-1,-1,-1,-1,-1,-1,-1,-1,-1],"split_conditions":[6.666667E-1,3E0,1E0,3.3333334E-1,2E-1,7.5E-1,4.2E0,2.5E-1,4E-1,3.8E0,3.2E0,6.7656435E-2,8E-1,7.5E-1,6.4E0,1.2E0,1E0,2E0,2E-1,3.2E0,5E0,5E-1,5.4E0,-3.5054617E-2,1.7533318E3,2.8E0,8E-1,5.2E0,6.9113106E-2,-4.179159E-3,-2.43465E-3,2.9578721E-2,-3.0198744E-2,3.3731263E-2,7.0079885E-2,4.8900065E-3,-1.2825303E-3,6.2500346E-3,1.1405076E-2,2.70557E-2,4.110932E-2,1.6634088E-2,1.0101186E-2,4.1494756E-3,-1.51082E-2,1.5337045E-2,1.2768884E-2,2.4019932E-2,4.5629404E-2,-3.5037395E-2,6.45321E-3,2.1163795E-2,1.224622E-2],"split_indices":[2,1,1,2,2,2,1,2,2,1,1,0,2,2,1,1,1,1,1,1,1,2,1,0,5,1,2,1,0,0,0,0,0,0,0,0,0,0,0,0,0,0,0,0,0,0,0,0,0,0,0,0,0],"split_type":[0,0,0,0,0,0,0,0,0,0,0,0,0,0,0,0,0,0,0,0,0,0,0,0,0,0,0,0,0,0,0,0,0,0,0,0,0,0,0,0,0,0,0,0,0,0,0,0,0,0,0,0,0],"sum_hessian":[1.6618784E5,1.4689302E5,1.9294826E4,1.3543719E5,1.1455829E4,5.138842E3,1.4155985E4,6.181081E4,7.362638E4,1.5728003E3,9.883028E3,1.4474233E1,5.1243677E3,1.3257124E4,8.988616E2,6.1371605E4,4.392045E2,6.3127527E2,7.299511E4,9.0424E2,6.6856024E2,1.6794355E3,8.203593E3,1.7556509E1,5.106811E3,8.98856E1,1.3167238E4,8.8315344E2,1.5708104E1,3.318369E4,2.8187912E4,1.19856094E2,3.1934842E2,5.440689E2,8.720635E1,5.2024614E3,6.779265E4,2.5571259E2,6.485274E2,5.2194727E2,1.46613E2,1.0556088E3,6.238268E2,7.954846E3,2.4874673E2,3.5622532E3,1.5445577E3,7.548404E1,1.4401556E1,1.7547655E1,1.314969E4,7.0546814E2,1.7768532E2],"tree_param":{"num_deleted":"0","num_feature":"6","num_nodes":"53","size_leaf_vector":"1"}},{"base_weights":[2.0967518E-1,9.2846535E-2,2.874826E-1,4.2111658E-2,2.6566708E-1,2.3992634E-1,3.5852894E-1,6.689849E-3,2.565857E-1,2.708393E-1,-3.5679568E-2,2.3118742E-1,4.888976E-1,3.372705E-1,5.877294E-1,-2.989454E-2,2.092227E-1,4.520521E-1,2.2595134E-1,2.7833495E-1,-7.251037E-2,1.2374721E-1,2.4755944E-1,3.6846176E-1,7.548606E-1,3.3295774E-1,7.493233E-1,8.1102484E-1,5.103913E-1,-6.50274E-3,9.925746E-4,2.8992528E-2,9.933958E-3,3.1390257E-2,1.9059634E-2,5.956357E-3,1.400563E-2,8.543816E-3,1.530578E-2,-3.736059E-2,1.1897275E-2,-1.1406591E-3,1.2202662E-2,1.1282008E-2,1.5098477E-2,2.0210091E-2,-2.6611332E-2,3.5826266E-2,5.7148367E-2,1.6346458E-2,2.4807623E-2,4.6346687E-2,1.6866203E-2,4.281647E-2,3.1336237E-2,2.624901E-2,-1.0626628E-2],"categories":[],"categories_nodes":[],"categories_segments":[],"categories_sizes":[],"default_left":[0,0,0,0,0,0,0,0,0,0,0,0,0,0,0,0,0,0,0,0,0,0,0,0,0,0,0,0,0,0,0,0,0,0,0,0,0,0,0,0,0,0,0,0,0,0,0,0,0,0,0,0,0,0,0,0,0],"id":6,"left_children":[1,3,5,7,9,11,13,15,17,19,-1,21,23,25,27,29,31,33,35,37,39,41,43,45,47,49,51,53,55,-1,-1,-1,-1,-1,-1,-1,-1,-1,-1,-1,-1,-1,-1,-1,-1,-1,-1,-1,-1,-1,-1,-1,-1,-1,-1,-1,-1],"loss_changes":[1.5254272E3,5.882067E2,3.402461E2,3.9400342E2,7.730615E1,1.3117603E2,1.9658691E2,3.2982355E2,4.3917603E1,3.8999023E1,0E0,1.0251636E2,6.523596E1,6.543457E1,5.8761597E1,1.8786102E2,2.64982E1,1.2152573E1,3.674832E1,4.4196045E1,6.812198E1,1.3596501E2,6.0264893E1,4.5596268E1,8.651611E0,3.582715E1,2.764421E1,6.809387E0,2.6982727E1,0E0,0E0,0E0,0E0,0E0,0E0,0E0,0E0,0E0,0E0,0E0,0E0,0E0,0E0,0E0,0E0,0E0,0E0,0E0,0E0,0E0,0E0,0E0,0E0,0E0,0E0,0E0,0E0],"parents":[2147483647,0,0,1,1,2,2,3,3,4,4,5,5,6,6,7,7,8,8,9,9,11,11,12,12,13,13,14,14,15,15,16,16,17,17,18,18,19,19,20,20,21,21,22,22,23,23,24,24,25,25,26,26,27,27,28,28],"right_children":[2,4,6,8,10,12,14,16,18,20,-1,22,24,26,28,30,32,34,36,38,40,42,44,46,48,50,52,54,56,-1,-1,-1,-1,-1,-1,-1,-1,-1,-1,-1,-1,-1,-1,-1,-1,-1,-1,-1,-1,-1,-1,-1,-1,-1,-1,-1,-1],"split_conditions":[4E-1,2E0,5E-1,2E0,3.3333334E-1,1E0,1E0,5E-1,2E-1,5E0,-3.5679568E-2,2E-1,3.3333334E-1,1E0,7.5E-1,2E-1,6E-1,2.4E0,2.4E0,2.2E0,5.2E0,5E-1,2E0,5E0,4E0,4E0,7.5E-1,3E0,5E0,-6.50274E-3,9.925746E-4,2.8992528E-2,9.933958E-3,3.1390257E-2,1.9059634E-2,5.956357E-3,1.400563E-2,8.543816E-3,1.530578E-2,-3.736059E-2,1.1897275E-2,-1.1406591E-3,1.2202662E-2,1.1282008E-2,1.5098477E-2,2.0210091E-2,-2.6611332E-2,3.5826266E-2,5.7148367E-2,1.6346458E-2,2.4807623E-2,4.6346687E-2,1.6866203E-2,4.281647E-2,3.1336237E-2,2.624901E-2,-1.0626628E-2],"split_indices":[2,0,3,1,2,2,3,3,0,0,0,3,3,2,2,2,3,1,1,0,0,2,1,0,1,1,3,1,1,0,0,0,0,0,0,0,0,0,0,0,0,0,0,0,0,0,0,0,0,0,0,0,0,0,0,0,0],"split_type":[0,0,0,0,0,0,0,0,0,0,0,0,0,0,0,0,0,0,0,0,0,0,0,0,0,0,0,0,0,0,0,0,0,0,0,0,0,0,0,0,0,0,0,0,0,0,0,0,0,0,0,0,0,0,0,0,0],"sum_hessian":[1.6781331E5,6.708568E4,1.0072763E5,5.1861855E4,1.5223825E4,6.034134E4,4.0386293E4,4.4511516E4,7.350341E3,1.5144558E4,7.926676E1,5.8297035E4,2.0443047E3,3.696065E4,3.4256428E3,3.770208E4,6.8094375E3,9.940325E2,6.356308E3,1.4821188E4,3.2337006E2,7.7099043E3,5.0587133E4,1.4087616E3,6.355431E2,3.6579594E4,3.8105338E2,8.7880743E2,2.5468354E3,1.2510806E4,2.5191271E4,1.8686195E2,6.6225757E3,2.83358E2,7.1067444E2,2.1395657E3,4.2167427E3,3.0460166E3,1.1775172E4,1.0146134E2,2.2190872E2,3.476067E3,4.2338374E3,3.6063848E4,1.4523284E4,1.3555245E3,5.3237095E1,5.8100085E2,5.4542236E1,3.5279344E4,1.3002506E3,2.6539386E2,1.1565952E2,7.024782E2,1.7632922E2,2.4967244E3,5.0111015E1],"tree_param":{"num_deleted":"0","num_feature":"6","num_nodes":"57","size_leaf_vector":"1"}},{"base_weights":[-2.1586238E-1,-1.2338715E-1,-4.218614E-1,3.4661785E-2,-2.6452488E-1,-3.3644933E-1,-5.6811905E-1,1.6203822E-1,-1.1215072E-2,-2.1565321E-1,-5.9922045E-1,-3.3390343E-1,-3.614652E-2,-5.158061E-1,-3.6505353E-2,1.03497274E-1,4.9476722E-1,1.6742612E-1,-4.1776896E-2,-1.2938908E-1,-2.5739455E-1,-5.5519754E-1,-3.635706E-2,-3.393377E-1,-1.6186227E-1,-5.8865887E-1,-4.8964414E-1,5.0850157E-3,1.2764943E-2,2.4259992E-2,6.978329E-2,2.455744E-2,-1.4010204E-3,-2.353819E-3,2.049238E-2,-1.0477038E-3,-1.3967422E-2,-1.3192408E-2,1.6805952E-2,-3.1096911E-2,-2.6467655E-2,-1.4748466E-2,-1.7645108E-2,-8.3139995E-3,1.5941879E-2,-3.134562E-2,-2.796433E-2,-2.0106446E-2,-2.6221862E-2],"categories":[],"categories_nodes":[],"categories_segments":[],"categories_sizes":[],"default_left":[0,0,0,0,0,0,0,0,0,0,0,0,0,0,0,0,0,0,0,0,0,0,0,0,0,0,0,0,0,0,0,0,0,0,0,0,0,0,0,0,0,0,0,0,0,0,0,0,0],"id":7,"left_children":[1,3,5,7,9,11,13,15,17,19,21,23,-1,25,-1,27,29,31,33,35,37,39,-1,41,43,45,47,-1,-1,-1,-1,-1,-1,-1,-1,-1,-1,-1,-1,-1,-1,-1,-1,-1,-1,-1,-1,-1,-1],"loss_changes":[3.1242944E3,2.5250417E3,6.345869E2,3.120511E2,9.7798535E2,3.132544E1,1.5836572E2,2.753748E2,2.143549E2,1.8785498E2,4.2499023E1,2.9744873E1,0E0,2.6706787E1,0E0,3.2544556E0,1.7555603E1,3.629129E2,8.025978E1,2.7671133E2,1.3477637E2,9.45459E0,0E0,1.8490967E1,2.1296844E0,3.8485107E0,3.1538574E1,0E0,0E0,0E0,0E0,0E0,0E0,0E0,0E0,0E0,0E0,0E0,0E0,0E0,0E0,0E0,0E0,0E0,0E0,0E0,0E0,0E0,0E0],"parents":[2147483647,0,0,1,1,2,2,3,3,4,4,5,5,6,6,7,7,8,8,9,9,10,10,11,11,13,13,15,15,16,16,17,17,18,18,19,19,20,20,21,21,23,23,24,24,25,25,26,26],"right_children":[2,4,6,8,10,12,14,16,18,20,22,24,-1,26,-1,28,30,32,34,36,38,40,-1,42,44,46,48,-1,-1,-1,-1,-1,-1,-1,-1,-1,-1,-1,-1,-1,-1,-1,-1,-1,-1,-1,-1,-1,-1],"split_conditions":[6E-1,3.3333334E-1,6.666667E-1,2E-1,6.666667E-1,1E0,1E0,2E-1,2E-1,2.5E-1,1E0,6.666667E-1,-3.614652E-2,4E-1,-3.6505353E-2,1.9262611E3,2.5E-1,4E-1,2.5E-1,6E-1,5E-1,2E-1,-3.635706E-2,4E-1,1.941861E3,2E-1,6.666667E-1,5.0850157E-3,1.2764943E-2,2.4259992E-2,6.978329E-2,2.455744E-2,-1.4010204E-3,-2.353819E-3,2.049238E-2,-1.0477038E-3,-1.3967422E-2,-1.3192408E-2,1.6805952E-2,-3.1096911E-2,-2.6467655E-2,-1.4748466E-2,-1.7645108E-2,-8.3139995E-3,1.5941879E-2,-3.134562E-2,-2.796433E-2,-2.0106446E-2,-2.6221862E-2],"split_indices":[2,3,2,2,3,3,2,3,3,2,3,3,0,3,0,5,3,2,3,3,2,2,0,3,4,3,3,0,0,0,0,0,0,0,0,0,0,0,0,0,0,0,0,0,0,0,0,0,0],"split_type":[0,0,0,0,0,0,0,0,0,0,0,0,0,0,0,0,0,0,0,0,0,0,0,0,0,0,0,0,0,0,0,0,0,0,0,0,0,0,0,0,0,0,0,0,0,0,0,0,0],"sum_hessian":[1.6400836E5,1.1319533E5,5.0813023E4,5.33989E4,5.9796434E4,3.208134E4,1.8731684E4,1.4139168E4,3.925973E4,5.2178992E4,7.617441E3,3.1873244E4,2.0809673E2,1.4162255E4,4.569428E3,1.20248125E4,2.114356E3,5.734679E3,3.352505E4,1.7016395E4,3.5162598E4,5.6711123E3,1.9463286E3,3.0896344E4,9.7689996E2,3.7363032E3,1.0425951E4,1.1885783E4,1.3902919E2,2.0936602E3,2.0695728E1,2.1583086E3,3.5763704E3,3.3137105E4,3.879441E2,9.876139E3,7.1402563E3,3.4784914E4,3.7768057E2,1.5766085E3,4.094504E3,7.2394106E3,2.3656934E4,9.686519E2,8.24801E0,1.6139714E3,2.1223318E3,2.969447E3,7.4565044E3],"tree_param":{"num_deleted":"0","num_feature":"6","num_nodes":"49","size_leaf_vector":"1"}},{"base_weights":[2.1724226E-3,-2.2332786E-2,1.878199E-1,-3.586068E-2,1.3653626E-1,3.0422154E-1,1.4551385E-1,-6.55309E-2,-1.1061333E-2,3.6641434E-1,9.965191E-2,6.837566E-2,3.003048E-1,1.2730476E-1,4.0992913E-1,-6.39638E-2,-2.858976E-1,7.5159246E-1,-1.7962711E-2,2.0157327E-1,5.885236E-1,2.8235143E-1,6.251716E-2,-3.579477E-2,3.0433205E-1,6.124465E-1,1.2370131E-1,3.870349E-1,6.831367E-2,-4.020951E-3,-2.2267238E-3,3.0710096E-2,-3.0755866E-2,3.2844447E-2,6.68425E-2,4.6366844E-3,-1.3181121E-3,9.4319E-3,2.2439161E-2,3.1455252E-2,2.0678967E-2,1.71505E-2,9.02781E-3,3.7413405E-3,-1.606155E-2,2.063225E-2,1.4706965E-2,3.1907383E-2,-2.4365686E-2,-3.5328094E-2,6.2461416E-3,2.0679507E-2,1.4173172E-2],"categories":[],"categories_nodes":[],"categories_segments":[],"categories_sizes":[],"default_left":[0,0,0,0,0,0,0,0,0,0,0,0,0,0,0,0,0,0,0,0,0,0,0,0,0,0,0,0,0,0,0,0,0,0,0,0,0,0,0,0,0,0,0,0,0,0,0,0,0,0,0,0,0],"id":8,"left_children":[1,3,5,7,9,11,13,15,17,19,21,-1,23,25,27,29,31,33,35,37,39,41,43,-1,45,47,49,51,-1,-1,-1,-1,-1,-1,-1,-1,-1,-1,-1,-1,-1,-1,-1,-1,-1,-1,-1,-1,-1,-1,-1,-1,-1],"loss_changes":[7.547947E2,3.150011E2,9.522797E1,9.938159E1,9.748131E1,2.106311E1,6.827594E1,2.1217865E1,3.8725803E2,5.8090576E1,6.723282E1,0E0,2.124759E1,2.3137466E1,1.9480392E1,1.9518463E1,1.2896391E2,3.5693634E1,6.779842E1,2.8383904E0,4.5444946E0,1.0275406E1,3.8944584E1,0E0,5.5300293E0,3.0709877E0,1.3457016E1,2.3413239E0,0E0,0E0,0E0,0E0,0E0,0E0,0E0,0E0,0E0,0E0,0E0,0E0,0E0,0E0,0E0,0E0,0E0,0E0,0E0,0E0,0E0,0E0,0E0,0E0,0E0],"parents":[2147483647,0,0,1,1,2,2,3,3,4,4,5,5,6,6,7,7,8,8,9,9,10,10,12,12,13,13,14,14,15,15,16,16,17,17,18,18,19,19,20,20,21,21,22,22,24,24,25,25,26,26,27,27],"right_children":[2,4,6,8,10,12,14,16,18,20,22,-1,24,26,28,30,32,34,36,38,40,42,44,-1,46,48,50,52,-1,-1,-1,-1,-1,-1,-1,-1,-1,-1,-1,-1,-1,-1,-1,-1,-1,-1,-1,-1,-1,-1,-1,-1,-1],"split_conditions":[6.666667E-1,3E0,1E0,3.3333334E-1,2E-1,7.5E-1,4.2E0,2.5E-1,4E-1,3.8E0,3.2E0,6.837566E-2,8E-1,7.5E-1,6.4E0,1.2E0,1E0,2E0,2E-1,1.8678295E3,1.7884994E3,5E-1,5.4E0,-3.579477E-2,1.5608854E3,1.9157712E3,8E-1,5.2E0,6.831367E-2,-4.020951E-3,-2.2267238E-3,3.0710096E-2,-3.0755866E-2,3.2844447E-2,6.68425E-2,4.6366844E-3,-1.3181121E-3,9.4319E-3,2.2439161E-2,3.1455252E-2,2.0678967E-2,1.71505E-2,9.02781E-3,3.7413405E-3,-1.606155E-2,2.063225E-2,1.4706965E-2,3.1907383E-2,-2.4365686E-2,-3.5328094E-2,6.2461416E-3,2.0679507E-2,1.4173172E-2],"split_indices":[3,1,1,3,3,3,1,3,3,1,1,0,3,3,1,1,1,1,1,4,5,3,1,0,5,4,3,1,0,0,0,0,0,0,0,0,0,0,0,0,0,0,0,0,0,0,0,0,0,0,0,0,0],"split_type":[0,0,0,0,0,0,0,0,0,0,0,0,0,0,0,0,0,0,0,0,0,0,0,0,0,0,0,0,0,0,0,0,0,0,0,0,0,0,0,0,0,0,0,0,0,0,0,0,0,0,0,0,0],"sum_hessian":[1.6591147E5,1.4656586E5,1.934561E4,1.3506562E5,1.1500231E4,5.1552285E3,1.4190381E4,6.1493027E4,7.357259E4,1.5888632E3,9.911368E3,1.7642355E1,5.137586E3,1.32775E4,9.128801E2,6.1060098E4,4.3292807E2,6.5883203E2,7.2913766E4,9.131015E2,6.757617E2,1.6731284E3,8.23824E3,1.9582401E1,5.1180034E3,9.664733E1,1.3180854E4,8.929092E2,1.9970942E1,3.3058676E4,2.8001426E4,1.1570914E2,3.1721893E2,5.688981E2,8.9934006E1,5.1417124E3,6.7772055E4,8.693745E2,4.3726967E1,5.4641516E2,1.2934651E2,1.0469148E3,6.262136E2,7.982972E3,2.55268E2,4.3680716E2,4.6811963E3,9.485044E1,1.7968929E0,1.8515404E1,1.3162338E4,7.0830884E2,1.8460033E2],"tree_param":{"num_deleted":"0","num_feature":"6","num_nodes":"53","size_leaf_vector":"1"}},{"base_weights":[2.010013E-1,8.8662475E-2,2.7546373E-1,4.027503E-2,2.5356054E-1,2.2976688E-1,3.4336802E-1,2.6872356E-3,2.2445904E-1,2.589264E-1,-3.5268087E-2,2.214534E-1,4.6938872E-1,3.230608E-1,5.6317216E-1,-8.944986E-2,4.8122425E-2,6.2273777E-1,2.1404757E-1,2.6681408E-1,-1.04696035E-1,1.1918592E-1,2.3704408E-1,3.590849E-1,7.166919E-1,3.1897423E-1,7.2048783E-1,7.70865E-1,4.90393E-1,1.5161321E-3,-5.61129E-3,2.9849613E-3,-1.947435E-2,3.5973962E-2,2.1988383E-2,1.10522015E-2,-2.4816653E-2,9.685537E-3,1.538705E-2,-3.741018E-2,1.0438844E-2,-1.0175438E-3,1.1557412E-2,1.0649004E-2,1.395365E-2,2.7926562E-2,1.2106784E-2,3.391472E-2,5.5389848E-2,1.565248E-2,2.3839606E-2,4.4283766E-2,1.7258395E-2,4.138071E-2,2.71304E-2,2.532957E-2,-9.63056E-3],"categories":[],"categories_nodes":[],"categories_segments":[],"categories_sizes":[],"default_left":[0,0,0,0,0,0,0,0,0,0,0,0,0,0,0,0,0,0,0,0,0,0,0,0,0,0,0,0,0,0,0,0,0,0,0,0,0,0,0,0,0,0,0,0,0,0,0,0,0,0,0,0,0,0,0,0,0],"id":9,"left_children":[1,3,5,7,9,11,13,15,17,19,-1,21,23,25,27,29,31,33,35,37,39,41,43,45,47,49,51,53,55,-1,-1,-1,-1,-1,-1,-1,-1,-1,-1,-1,-1,-1,-1,-1,-1,-1,-1,-1,-1,-1,-1,-1,-1,-1,-1,-1,-1],"loss_changes":[1.4122153E3,5.369677E2,3.149663E2,3.6022208E2,7.874158E1,1.20798584E2,1.8210596E2,1.8091112E2,3.6435547E1,4.3576416E1,0E0,9.3496826E1,5.5230682E1,6.0490967E1,5.1809692E1,3.8937836E1,1.4665111E2,3.6510162E0,4.2831635E1,4.440393E1,6.532975E1,1.2126146E2,5.1417725E1,3.2723053E1,8.655884E0,3.4454346E1,2.323671E1,1.1133179E1,2.8413696E1,0E0,0E0,0E0,0E0,0E0,0E0,0E0,0E0,0E0,0E0,0E0,0E0,0E0,0E0,0E0,0E0,0E0,0E0,0E0,0E0,0E0,0E0,0E0,0E0,0E0,0E0,0E0,0E0],"parents":[2147483647,0,0,1,1,2,2,3,3,4,4,5,5,6,6,7,7,8,8,9,9,11,11,12,12,13,13,14,14,15,15,16,16,17,17,18,18,19,19,20,20,21,21,22,22,23,23,24,24,25,25,26,26,27,27,28,28],"right_children":[2,4,6,8,10,12,14,16,18,20,-1,22,24,26,28,30,32,34,36,38,40,42,44,46,48,50,52,54,56,-1,-1,-1,-1,-1,-1,-1,-1,-1,-1,-1,-1,-1,-1,-1,-1,-1,-1,-1,-1,-1,-1,-1,-1,-1,-1,-1,-1],"split_conditions":[4E-1,2E0,5E-1,5E-1,3.3333334E-1,1E0,1E0,2E-1,6E-1,5E0,-3.5268087E-2,2E-1,3.3333334E-1,1E0,7.5E-1,2E-1,2.5E-1,1.2E0,2.5E-1,2.4E0,5.2E0,5E-1,1.8E0,2E-1,4E0,4E0,7.5E-1,3E0,5E0,1.5161321E-3,-5.61129E-3,2.9849613E-3,-1.947435E-2,3.5973962E-2,2.1988383E-2,1.10522015E-2,-2.4816653E-2,9.685537E-3,1.538705E-2,-3.741018E-2,1.0438844E-2,-1.0175438E-3,1.1557412E-2,1.0649004E-2,1.395365E-2,2.7926562E-2,1.2106784E-2,3.391472E-2,5.5389848E-2,1.565248E-2,2.3839606E-2,4.4283766E-2,1.7258395E-2,4.138071E-2,2.71304E-2,2.532957E-2,-9.63056E-3],"split_indices":[2,1,3,3,2,2,3,2,3,1,0,3,3,2,2,1,2,1,2,1,1,2,1,3,1,1,3,1,1,0,0,0,0,0,0,0,0,0,0,0,0,0,0,0,0,0,0,0,0,0,0,0,0,0,0,0,0],"split_type":[0,0,0,0,0,0,0,0,0,0,0,0,0,0,0,0,0,0,0,0,0,0,0,0,0,0,0,0,0,0,0,0,0,0,0,0,0,0,0,0,0,0,0,0,0,0,0,0,0,0,0,0,0,0,0,0,0],"sum_hessian":[1.6882577E5,6.729794E4,1.0152783E5,5.2031215E4,1.5266719E4,6.069018E4,4.0837652E4,4.321336E4,8.817856E3,1.5182492E4,8.4226776E1,5.8657047E4,2.0331318E3,3.73861E4,3.45155E3,1.4271502E4,2.8941855E4,2.2313832E2,8.594718E3,1.4860406E4,3.220857E2,7.760494E3,5.0896555E4,1.4077084E3,6.2542346E2,3.7007375E4,3.7872806E2,8.9314746E2,2.5584026E3,2.2802031E3,1.1991299E4,2.8196785E4,7.4507214E2,1.4404532E2,7.9093E1,8.511577E3,8.31406E1,5.3356465E3,9.524761E3,1.050496E2,2.1703609E2,3.4551794E3,4.305315E3,3.2369314E4,1.8527238E4,5.1893536E2,8.88773E2,5.720004E2,5.342304E1,3.5671223E4,1.3361495E3,2.620387E2,1.16689384E2,7.1320483E2,1.7994263E2,2.4993845E3,5.901798E1],"tree_param":{"num_deleted":"0","num_feature":"6","num_nodes":"57","size_leaf_vector":"1"}},{"base_weights":[-2.0995295E-1,-1.565317E-1,-3.9287728E-1,-1.1347018E-1,-4.1138577E-1,-5.377252E-1,-3.5644048E-1,-8.044515E-2,-1.5771805E-1,-5.373854E-1,-3.2604608E-1,-4.6424916E-1,-6.0668665E-1,-3.040237E-1,-4.441264E-1,-6.46984E-2,-5.8527946E-1,-3.034825E-1,-1.24187075E-1,-4.6393284E-1,-6.055332E-1,-2.5931388E-1,-4.760093E-1,-5.481051E-1,-4.3982735E-1,-7.0045286E-1,-5.691082E-1,-2.620014E-1,-3.3299953E-1,-4.4539052E-1,6.753331E-2,-5.69405E-3,4.191309E-3,-3.623123E-2,-2.6773233E-2,-1.301151E-2,-2.9839104E-2,-9.953615E-3,-5.8413255E-3,-2.754098E-2,-2.1935591E-2,-3.4871295E-2,-2.8431922E-2,-9.2794895E-3,-1.4616405E-2,-3.0216077E-2,-2.2343162E-2,-3.6329128E-2,-2.1677831E-2,-1.967532E-2,-2.2971254E-2,-1.0464541E-2,-3.510998E-2,-2.700808E-2,-3.0649686E-2,-9.309403E-3,-1.4778529E-2,-1.6694527E-2,6.2156897E-2,-2.230465E-2,5.8881816E-2],"categories":[],"categories_nodes":[],"categories_segments":[],"categories_sizes":[],"default_left":[0,0,0,0,0,0,0,0,0,0,0,0,0,0,0,0,0,0,0,0,0,0,0,0,0,0,0,0,0,0,0,0,0,0,0,0,0,0,0,0,0,0,0,0,0,0,0,0,0,0,0,0,0,0,0,0,0,0,0,0,0],"id":10,"left_children":[1,3,5,7,9,11,13,15,17,19,21,23,25,27,29,31,33,35,37,39,41,43,45,47,49,51,53,55,57,59,-1,-1,-1,-1,-1,-1,-1,-1,-1,-1,-1,-1,-1,-1,-1,-1,-1,-1,-1,-1,-1,-1,-1,-1,-1,-1,-1,-1,-1,-1,-1],"loss_changes":[1.5945728E3,1.3860271E3,1.9447363E2,1.5787366E2,1.9612158E2,3.727173E1,1.3533032E2,4.9180737E2,2.2565283E2,3.661084E1,1.08820435E2,7.116028E0,1.3061157E1,2.2377563E1,2.5614746E1,4.383051E2,1.2602051E1,1.0938617E2,2.066986E1,7.5404053E0,1.2553955E1,1.8288055E1,1.2263123E1,1.6167542E1,2.3494263E0,7.869873E-1,3.1398315E0,1.9119873E1,1.5744873E1,1.3086914E1,0E0,0E0,0E0,0E0,0E0,0E0,0E0,0E0,0E0,0E0,0E0,0E0,0E0,0E0,0E0,0E0,0E0,0E0,0E0,0E0,0E0,0E0,0E0,0E0,0E0,0E0,0E0,0E0,0E0,0E0,0E0],"parents":[2147483647,0,0,1,1,2,2,3,3,4,4,5,5,6,6,7,7,8,8,9,9,10,10,11,11,12,12,13,13,14,14,15,15,16,16,17,17,18,18,19,19,20,20,21,21,22,22,23,23,24,24,25,25,26,26,27,27,28,28,29,29],"right_children":[2,4,6,8,10,12,14,16,18,20,22,24,26,28,30,32,34,36,38,40,42,44,46,48,50,52,54,56,58,60,-1,-1,-1,-1,-1,-1,-1,-1,-1,-1,-1,-1,-1,-1,-1,-1,-1,-1,-1,-1,-1,-1,-1,-1,-1,-1,-1,-1,-1,-1,-1],"split_conditions":[2.2E0,2.2E0,1E0,1.2E0,1E0,2.8E0,3E0,2E0,8E-1,2.8E0,3E0,2E-1,2E-1,2.2E0,7.8E0,1E0,4E-1,2E0,1E0,2E-1,2E-1,2.4E0,3.2E0,2.4E0,2.4E0,1.4327946E3,3.6E0,2.4E0,7.6E0,7.8E0,6.753331E-2,-5.69405E-3,4.191309E-3,-3.623123E-2,-2.6773233E-2,-1.301151E-2,-2.9839104E-2,-9.953615E-3,-5.8413255E-3,-2.754098E-2,-2.1935591E-2,-3.4871295E-2,-2.8431922E-2,-9.2794895E-3,-1.4616405E-2,-3.0216077E-2,-2.2343162E-2,-3.6329128E-2,-2.1677831E-2,-1.967532E-2,-2.2971254E-2,-1.0464541E-2,-3.510998E-2,-2.700808E-2,-3.0649686E-2,-9.309403E-3,-1.4778529E-2,-1.6694527E-2,6.2156897E-2,-2.230465E-2,5.8881816E-2],"split_indices":[1,0,0,1,1,1,1,0,0,0,0,0,0,0,1,1,1,1,0,1,1,0,0,1,1,4,1,1,0,0,0,0,0,0,0,0,0,0,0,0,0,0,0,0,0,0,0,0,0,0,0,0,0,0,0,0,0,0,0,0,0],"split_type":[0,0,0,0,0,0,0,0,0,0,0,0,0,0,0,0,0,0,0,0,0,0,0,0,0,0,0,0,0,0,0,0,0,0,0,0,0,0,0,0,0,0,0,0,0,0,0,0,0,0,0,0,0,0,0,0,0,0,0,0,0],"sum_hessian":[1.6318228E5,1.2629959E5,3.6882695E4,1.0804515E5,1.8254447E4,7.4103667E3,2.9472328E4,6.1870223E4,4.6174926E4,7.369081E3,1.0885366E4,3.59149E3,3.818877E3,1.8448611E4,1.1023718E4,5.999984E4,1.870382E3,8.633907E3,3.7541016E4,3.5502627E3,3.8188186E3,7.535064E3,3.3503022E3,8.052164E2,2.7862737E3,1.0875552E3,2.7313215E3,7.5333594E3,1.0915252E4,1.1016711E4,7.007562E0,4.5074164E4,1.4925674E4,4.889928E2,1.3813892E3,7.5259556E3,1.1079513E3,3.3573955E3,3.418362E4,7.940187E2,2.756244E3,1.0888762E3,2.7299424E3,2.332646E3,5.2024185E3,6.164991E2,2.7338032E3,3.126832E2,4.9253314E2,8.34631E2,1.9516427E3,4.282137E0,1.0832731E3,1.6537971E3,1.0775245E3,2.3139766E3,5.219383E3,1.0909873E4,5.3791103E0,1.1012669E4,4.0412173E0],"tree_param":{"num_deleted":"0","num_feature":"6","num_nodes":"61","size_leaf_vector":"1"}},{"base_weights":[3.3923686E-3,-1.12972455E-2,1.556038E-1,-2.1048352E-2,1.523619E-1,3.2693443E-1,1.1007247E-1,-2.672278E-2,3.9679764E-4,2.8617457E-1,3.650351E-2,2.0377128E-1,5.0416136E-1,2.346566E-1,8.2615755E-2,-3.7528735E-2,4.4982E-2,1.1185766E-1,-3.912628E-2,2.4146552E-1,4.7807795E-1,3.092233E-1,2.4429688E-4,4.1478136E-1,1.2984063E-1,3.6281478E-1,5.685825E-1,2.694262E-1,-2.8174832E-1,4.436443E-2,1.8753043E-1,-1.1550155E-3,-2.5021909E-3,5.5059697E-3,-1.3221481E-3,1.0910093E-2,3.8107762E-3,-3.6624148E-3,-1.2432494E-3,1.6466035E-2,1.0219096E-2,1.6748777E-2,2.8070176E-2,2.8917266E-2,-4.440814E-3,5.285046E-4,-2.7027486E-2,1.7945895E-2,3.0947795E-2,1.4045082E-2,2.2218584E-3,2.251257E-2,-1.4062816E-2,2.645417E-2,6.426051E-2,4.545975E-3,1.48335E-2,-1.5683806E-2,2.9293323E-2,2.7699678E-3,-2.6908377E-2,6.859995E-3,1.4923696E-2],"categories":[],"categories_nodes":[],"categories_segments":[],"categories_sizes":[],"default_left":[0,0,0,0,0,0,0,0,0,0,0,0,0,0,0,0,0,0,0,0,0,0,0,0,0,0,0,0,0,0,0,0,0,0,0,0,0,0,0,0,0,0,0,0,0,0,0,0,0,0,0,0,0,0,0,0,0,0,0,0,0,0,0],"id":11,"left_children":[1,3,5,7,9,11,13,15,17,19,21,23,25,27,29,31,33,35,37,39,41,43,45,47,49,51,53,55,57,59,61,-1,-1,-1,-1,-1,-1,-1,-1,-1,-1,-1,-1,-1,-1,-1,-1,-1,-1,-1,-1,-1,-1,-1,-1,-1,-1,-1,-1,-1,-1,-1,-1],"loss_changes":[3.7119934E2,2.4162305E2,1.1394861E2,1.7388325E1,1.3198178E2,6.684967E1,3.9473663E1,8.755328E1,1.3171873E2,3.3780273E1,4.513319E1,2.820343E1,1.1239105E1,3.750199E1,3.796383E1,1.7730347E1,6.8852165E1,2.9650253E1,1.0739552E1,1.0378342E1,8.701004E0,5.74268E1,2.2507277E1,5.1331024E0,1.7311598E1,2.2443531E1,2.3710388E1,9.472977E0,3.839734E0,4.4610832E1,1.4073669E1,0E0,0E0,0E0,0E0,0E0,0E0,0E0,0E0,0E0,0E0,0E0,0E0,0E0,0E0,0E0,0E0,0E0,0E0,0E0,0E0,0E0,0E0,0E0,0E0,0E0,0E0,0E0,0E0,0E0,0E0,0E0,0E0],"parents":[2147483647,0,0,1,1,2,2,3,3,4,4,5,5,6,6,7,7,8,8,9,9,10,10,11,11,12,12,13,13,14,14,15,15,16,16,17,17,18,18,19,19,20,20,21,21,22,22,23,23,24,24,25,25,26,26,27,27,28,28,29,29,30,30],"right_children":[2,4,6,8,10,12,14,16,18,20,22,24,26,28,30,32,34,36,38,40,42,44,46,48,50,52,54,56,58,60,62,-1,-1,-1,-1,-1,-1,-1,-1,-1,-1,-1,-1,-1,-1,-1,-1,-1,-1,-1,-1,-1,-1,-1,-1,-1,-1,-1,-1,-1,-1,-1,-1],"split_conditions":[3E0,3E0,1E0,2E0,1.2E0,3.8E0,3.2E0,2E0,1.2E0,4.4E0,3.2E0,3.2E0,2E-1,3.6E0,3.8E0,1E0,1.2E0,2.2E0,2.2E0,4E-1,2E-1,2E0,5.4E0,8E-1,4E-1,5.6E0,6E0,1.2E0,1.8866129E3,5.4E0,4.6E0,-1.1550155E-3,-2.5021909E-3,5.5059697E-3,-1.3221481E-3,1.0910093E-2,3.8107762E-3,-3.6624148E-3,-1.2432494E-3,1.6466035E-2,1.0219096E-2,1.6748777E-2,2.8070176E-2,2.8917266E-2,-4.440814E-3,5.285046E-4,-2.7027486E-2,1.7945895E-2,3.0947795E-2,1.4045082E-2,2.2218584E-3,2.251257E-2,-1.4062816E-2,2.645417E-2,6.426051E-2,4.545975E-3,1.48335E-2,-1.5683806E-2,2.9293323E-2,2.7699678E-3,-2.6908377E-2,6.859995E-3,1.4923696E-2],"split_indices":[0,1,1,1,0,0,0,0,0,1,1,0,1,1,1,0,1,1,1,0,0,0,1,1,1,0,0,1,4,0,0,0,0,0,0,0,0,0,0,0,0,0,0,0,0,0,0,0,0,0,0,0,0,0,0,0,0,0,0,0,0,0,0],"split_type":[0,0,0,0,0,0,0,0,0,0,0,0,0,0,0,0,0,0,0,0,0,0,0,0,0,0,0,0,0,0,0,0,0,0,0,0,0,0,0,0,0,0,0,0,0,0,0,0,0,0,0,0,0,0,0,0,0,0,0,0,0,0,0],"sum_hessian":[1.6601406E5,1.5140336E5,1.4610703E4,1.4289055E5,8.512805E3,3.0662976E3,1.1544406E4,1.1299232E5,2.9898229E4,3.9496353E3,4.5631694E3,1.8103512E3,1.2559464E3,2.0834158E3,9.46099E3,9.819478E4,1.4797539E4,7.825983E3,2.2072246E4,3.2051648E3,7.4447064E2,5.346123E2,4.0285571E3,4.685171E2,1.3418341E3,3.9528415E2,8.6066223E2,1.9524363E3,1.309795E2,6.9342305E3,2.52676E3,4.5612156E4,5.2582625E4,7.7391387E3,7.0584E3,1.9632327E3,5.8627505E3,6.5047183E3,1.5567528E4,9.49E2,2.2561646E3,2.758128E2,4.6865784E2,3.1868823E2,2.1592407E2,3.95404E3,7.4517075E1,3.700319E2,9.84852E1,4.838011E2,8.5803296E2,3.483011E2,4.698308E1,8.1734985E2,4.3312405E1,2.590998E2,1.6933365E3,1.2694641E2,4.0330963E0,6.806205E3,1.2802527E2,1.7397454E3,7.870146E2],"tree_param":{"num_deleted":"0","num_feature":"6","num_nodes":"63","size_leaf_vector":"1"}},{"base_weights":[1.9178504E-1,8.541326E-2,2.620667E-1,4.3748952E-2,2.717973E-1,2.5121096E-1,4.7332424E-1,4.98938E-2,-3.28116E-1,2.7746284E-1,-3.511128E-2,2.1229178E-1,2.893303E-1,4.8830858E-1,-2.2386149E-1,-2.2499377E-2,8.73696E-2,6.695797E-2,-3.6532295E-1,2.870814E-1,-7.460629E-2,1.9171557E-1,2.6520956E-1,2.6975384E-1,3.3850494E-1,3.173391E-1,5.405468E-1,-4.82521E-1,-3.8155574E-2,5.1008225E-3,-2.2642545E-3,9.10047E-3,3.77647E-3,-1.3158539E-2,-2.1532474E-2,1.4951716E-2,9.631811E-3,-3.7216693E-2,1.212997E-2,1.0910473E-2,8.573527E-3,1.4850536E-2,1.1797781E-2,2.6215984E-2,1.3307849E-2,1.6985765E-2,-3.515589E-2,1.4246072E-2,1.8187074E-2,2.913186E-2,2.047955E-2,-8.438281E-3,-2.6929615E-2,8.833896E-3,-1.3082601E-2],"categories":[],"categories_nodes":[],"categories_segments":[],"categories_sizes":[],"default_left":[0,0,0,0,0,0,0,0,0,0,0,0,0,0,0,0,0,0,0,0,0,0,0,0,0,0,0,0,0,0,0,0,0,0,0,0,0,0,0,0,0,0,0,0,0,0,0,0,0,0,0,0,0,0,0],"id":12,"left_children":[1,3,5,7,9,11,13,15,17,19,-1,21,23,25,27,29,31,-1,33,35,37,39,41,43,45,47,49,51,53,-1,-1,-1,-1,-1,-1,-1,-1,-1,-1,-1,-1,-1,-1,-1,-1,-1,-1,-1,-1,-1,-1,-1,-1,-1,-1],"loss_changes":[1.2654199E3,5.2295746E2,2.3362842E2,1.2579035E2,6.8091125E1,1.437627E2,5.213867E1,1.4690549E2,5.6002647E1,4.1447754E1,0E0,5.2184082E1,4.7053223E1,4.3375732E1,5.048025E0,5.2408733E1,3.9966156E1,0E0,5.73333E0,1.3385437E1,6.946136E1,1.8491577E1,1.2422485E1,3.1937988E1,1.7814697E1,1.6165543E0,2.03396E1,6.830654E-1,3.0462415E0,0E0,0E0,0E0,0E0,0E0,0E0,0E0,0E0,0E0,0E0,0E0,0E0,0E0,0E0,0E0,0E0,0E0,0E0,0E0,0E0,0E0,0E0,0E0,0E0,0E0,0E0],"parents":[2147483647,0,0,1,1,2,2,3,3,4,4,5,5,6,6,7,7,8,8,9,9,11,11,12,12,13,13,14,14,15,15,16,16,18,18,19,19,20,20,21,21,22,22,23,23,24,24,25,25,26,26,27,27,28,28],"right_children":[2,4,6,8,10,12,14,16,18,20,-1,22,24,26,28,30,32,-1,34,36,38,40,42,44,46,48,50,52,54,-1,-1,-1,-1,-1,-1,-1,-1,-1,-1,-1,-1,-1,-1,-1,-1,-1,-1,-1,-1,-1,-1,-1,-1,-1,-1],"split_conditions":[4E-1,2.2E0,1E0,2.5E-1,3.3333334E-1,5E-1,5E0,2E-1,2E-1,5E0,-3.511128E-2,2E0,2.2E0,8E-1,5.2E0,2E-1,2E-1,6.695797E-2,3.3333334E-1,3.8E0,5.2E0,1E0,2.6E0,6E-1,7E0,4E-1,3E0,1.6038131E3,5.6E0,5.1008225E-3,-2.2642545E-3,9.10047E-3,3.77647E-3,-1.3158539E-2,-2.1532474E-2,1.4951716E-2,9.631811E-3,-3.7216693E-2,1.212997E-2,1.0910473E-2,8.573527E-3,1.4850536E-2,1.1797781E-2,2.6215984E-2,1.3307849E-2,1.6985765E-2,-3.515589E-2,1.4246072E-2,1.8187074E-2,2.913186E-2,2.047955E-2,-8.438281E-3,-2.6929615E-2,8.833896E-3,-1.3082601E-2],"split_indices":[3,0,3,3,3,3,0,3,0,0,0,0,0,0,0,0,0,0,3,0,0,0,0,3,0,0,0,4,0,0,0,0,0,0,0,0,0,0,0,0,0,0,0,0,0,0,0,0,0,0,0,0,0,0,0],"split_type":[0,0,0,0,0,0,0,0,0,0,0,0,0,0,0,0,0,0,0,0,0,0,0,0,0,0,0,0,0,0,0,0,0,0,0,0,0,0,0,0,0,0,0,0,0,0,0,0,0,0,0,0,0,0,0],"sum_hessian":[1.692666E5,6.7343695E4,1.019229E5,5.5041047E4,1.2302648E4,9.694352E4,4.979374E3,5.414716E4,8.9388354E2,1.2232213E4,7.043546E1,4.7971754E4,4.8971773E4,4.8748994E3,1.0447472E2,1.8469482E4,3.567768E4,1.874864E1,8.751349E2,1.1907096E4,3.2511713E2,3.4544367E4,1.3427388E4,3.5031984E4,1.3939789E4,1.1425477E3,3.7323516E3,4.2993347E1,6.148137E1,2.8564607E3,1.5613021E4,3.9656328E3,3.1712047E4,3.4331543E2,5.3181946E2,1.056751E4,1.339586E3,1.04061615E2,2.2105551E2,1.4958703E4,1.9585662E4,6.4292114E3,6.998176E3,4.8606732E2,3.4545914E4,1.3924282E4,1.5506165E1,6.768363E2,4.657115E2,2.821913E3,9.1043835E2,7.126393E0,3.5866955E1,3.145504E1,3.0026329E1],"tree_param":{"num_deleted":"0","num_feature":"6","num_nodes":"55","size_leaf_vector":"1"}},{"base_weights":[-2.0304611E-1,-1.1430767E-1,-4.0346014E-1,-5.675303E-2,-2.9261762E-1,-3.204173E-1,-5.4653203E-1,2.3339149E-2,-1.7590208E-1,-2.3358218E-1,-3.8907963E-1,-2.9327607E-1,-3.9501044E-1,-4.9503317E-1,-3.5371356E-2,9.285746E-2,-1.3328811E-2,-2.273736E-1,-1.373778E-1,-2.3708135E-1,3.396754E-1,-3.965748E-1,6.1408836E-1,-3.7343743E-1,-2.4331559E-1,-3.988575E-1,-8.472297E-2,-4.7326976E-1,-6.2734556E-1,-1.182584E-3,5.761404E-3,-8.8385306E-4,1.8558633E-2,-1.5019531E-2,-1.04147885E-2,1.8130908E-3,-1.0201373E-2,-9.7924555E-3,-1.4187269E-2,9.6208835E-3,2.749214E-2,-1.9910052E-2,6.6675045E-2,2.364766E-2,6.858557E-2,-2.0640317E-2,-1.8100118E-2,-1.2821423E-2,-8.258659E-3,-1.8396316E-2,-2.2442656E-2,1.7359901E-2,-1.7364016E-2,-2.6327873E-2,-2.2487024E-2,-2.9616265E-2,-3.4600064E-2],"categories":[],"categories_nodes":[],"categories_segments":[],"categories_sizes":[],"default_left":[0,0,0,0,0,0,0,0,0,0,0,0,0,0,0,0,0,0,0,0,0,0,0,0,0,0,0,0,0,0,0,0,0,0,0,0,0,0,0,0,0,0,0,0,0,0,0,0,0,0,0,0,0,0,0,0,0],"id":13,"left_children":[1,3,5,7,9,11,13,15,17,19,21,23,25,27,-1,29,31,33,35,37,39,41,43,45,47,49,51,53,55,-1,-1,-1,-1,-1,-1,-1,-1,-1,-1,-1,-1,-1,-1,-1,-1,-1,-1,-1,-1,-1,-1,-1,-1,-1,-1,-1,-1],"loss_changes":[2.8851992E3,1.1539818E3,5.9136035E2,8.112437E2,1.5616357E2,6.3668457E1,1.5114697E2,1.2959183E2,6.7730225E1,3.4229248E1,7.855835E1,9.243823E1,9.99585E0,3.9595947E1,0E0,4.575859E1,5.565362E1,2.0312622E1,2.262261E2,3.2502014E1,3.103424E0,2.9620483E1,7.652666E0,3.8431396E0,1.4544861E1,1.2668701E1,1.1933648E1,1.4684814E1,4.013977E0,0E0,0E0,0E0,0E0,0E0,0E0,0E0,0E0,0E0,0E0,0E0,0E0,0E0,0E0,0E0,0E0,0E0,0E0,0E0,0E0,0E0,0E0,0E0,0E0,0E0,0E0,0E0,0E0],"parents":[2147483647,0,0,1,1,2,2,3,3,4,4,5,5,6,6,7,7,8,8,9,9,10,10,11,11,12,12,13,13,15,15,16,16,17,17,18,18,19,19,20,20,21,21,22,22,23,23,24,24,25,25,26,26,27,27,28,28],"right_children":[2,4,6,8,10,12,14,16,18,20,22,24,26,28,-1,30,32,34,36,38,40,42,44,46,48,50,52,54,56,-1,-1,-1,-1,-1,-1,-1,-1,-1,-1,-1,-1,-1,-1,-1,-1,-1,-1,-1,-1,-1,-1,-1,-1,-1,-1,-1,-1],"split_conditions":[6E-1,2E0,6.666667E-1,3.3333334E-1,2.8E0,2.2E0,1E0,2E-1,1E0,5E-1,5E-1,1E0,5.2E0,3E0,-3.5371356E-2,2E-1,2.5E-1,2E-1,1.2E0,3.3333334E-1,2.6E0,7.8E0,4E0,2E-1,2E0,3E0,5.4E0,1E0,4E0,-1.182584E-3,5.761404E-3,-8.8385306E-4,1.8558633E-2,-1.5019531E-2,-1.04147885E-2,1.8130908E-3,-1.0201373E-2,-9.7924555E-3,-1.4187269E-2,9.6208835E-3,2.749214E-2,-1.9910052E-2,6.6675045E-2,2.364766E-2,6.858557E-2,-2.0640317E-2,-1.8100118E-2,-1.2821423E-2,-8.258659E-3,-1.8396316E-2,-2.2442656E-2,1.7359901E-2,-1.7364016E-2,-2.6327873E-2,-2.2487024E-2,-2.9616265E-2,-3.4600064E-2],"split_indices":[3,1,3,3,1,1,3,3,1,3,3,1,1,1,0,1,3,1,1,3,1,1,1,1,1,1,1,1,1,0,0,0,0,0,0,0,0,0,0,0,0,0,0,0,0,0,0,0,0,0,0,0,0,0,0,0,0],"split_type":[0,0,0,0,0,0,0,0,0,0,0,0,0,0,0,0,0,0,0,0,0,0,0,0,0,0,0,0,0,0,0,0,0,0,0,0,0,0,0,0,0,0,0,0,0,0,0,0,0,0,0,0,0,0,0,0,0],"sum_hessian":[1.6223333E5,1.1244638E5,4.9786945E4,8.500871E4,2.7437678E4,3.1504258E4,1.828269E4,5.0836883E4,3.417183E4,1.7022941E4,1.0414736E4,2.310299E4,8.401267E3,1.3852798E4,4.4298916E3,1.7554326E4,3.3282555E4,1.4625751E4,1.9546076E4,1.6920246E4,1.0269468E2,1.0338101E4,7.663618E1,8.86794E3,1.423505E4,8.298099E3,1.0316802E2,1.19E4,1.9527971E3,2.8276248E3,1.4726702E4,3.291132E4,3.7123352E2,3.026732E3,1.159902E4,5.4216724E3,1.4124403E4,8.985698E3,7.9345474E3,6.151123E1,4.1183445E1,1.0329161E4,8.9395075E0,6.5970924E1,1.0665255E1,1.9881116E3,6.879829E3,1.2187603E4,2.0474471E3,5.131631E3,3.1664675E3,3.888225E1,6.428577E1,3.6384595E3,8.261541E3,1.2732904E3,6.795067E2],"tree_param":{"num_deleted":"0","num_feature":"6","num_nodes":"57","size_leaf_vector":"1"}},{"base_weights":[1.1289521E-3,-2.2069547E-2,1.758268E-1,-3.4895755E-2,1.2782055E-1,3.0049074E-1,1.2983494E-1,-4.321684E-2,1.2081388E-1,3.3745039E-1,9.4846696E-2,2.7623224E-1,7.4788314E-1,2.823663E-1,9.4424255E-2,-7.082036E-2,-1.9750131E-2,2.3715736E-1,2.5705228E-2,1.643245E-1,5.5987763E-1,2.5828636E-1,6.1835874E-2,6.610408E-2,2.7138314E-1,7.193532E-1,6.3707374E-2,2.2649384E-1,7.598606E-1,9.314846E-2,6.259085E-2,-4.7950596E-3,-2.0723515E-3,3.6271885E-2,-1.3519182E-3,2.3739524E-2,8.999386E-3,1.3029351E-2,-2.5814967E-4,1.6077472E-2,3.2858027E-3,4.1855495E-2,2.0965183E-2,1.4177583E-2,-9.711132E-3,3.6349294E-3,-1.4413814E-2,-3.516657E-2,1.3737596E-2,3.0188331E-2,4.1798558E-2,5.9958536E-2,1.1168245E-2,3.60219E-2,6.1657995E-2,4.225534E-3,1.1570758E-2],"categories":[],"categories_nodes":[],"categories_segments":[],"categories_sizes":[],"default_left":[0,0,0,0,0,0,0,0,0,0,0,0,0,0,0,0,0,0,0,0,0,0,0,0,0,0,0,0,0,0,0,0,0,0,0,0,0,0,0,0,0,0,0,0,0,0,0,0,0,0,0,0,0,0,0,0,0],"id":14,"left_children":[1,3,5,7,9,11,13,15,17,19,21,23,25,27,29,31,33,35,37,39,41,43,45,-1,47,49,-1,51,53,55,-1,-1,-1,-1,-1,-1,-1,-1,-1,-1,-1,-1,-1,-1,-1,-1,-1,-1,-1,-1,-1,-1,-1,-1,-1,-1,-1],"loss_changes":[6.7221655E2,2.8150735E2,1.1144324E2,1.7476901E2,7.975087E1,5.665686E1,7.6700836E1,8.293887E1,7.5710236E1,6.0303024E1,5.3800713E1,2.4853851E1,3.1206512E0,7.122034E1,1.6909279E1,4.333969E1,3.7589352E2,4.172557E1,2.7306702E1,1.3674002E1,2.6384842E1,1.9214233E1,3.158712E1,0E0,1.644638E1,2.964386E0,0E0,7.027611E0,4.3341064E0,1.3737694E1,0E0,0E0,0E0,0E0,0E0,0E0,0E0,0E0,0E0,0E0,0E0,0E0,0E0,0E0,0E0,0E0,0E0,0E0,0E0,0E0,0E0,0E0,0E0,0E0,0E0,0E0,0E0],"parents":[2147483647,0,0,1,1,2,2,3,3,4,4,5,5,6,6,7,7,8,8,9,9,10,10,11,11,12,12,13,13,14,14,15,15,16,16,17,17,18,18,19,19,20,20,21,21,22,22,24,24,25,25,27,27,28,28,29,29],"right_children":[2,4,6,8,10,12,14,16,18,20,22,24,26,28,30,32,34,36,38,40,42,44,46,-1,48,50,-1,52,54,56,-1,-1,-1,-1,-1,-1,-1,-1,-1,-1,-1,-1,-1,-1,-1,-1,-1,-1,-1,-1,-1,-1,-1,-1,-1,-1,-1],"split_conditions":[6.666667E-1,3E0,1E0,3E0,2E-1,4E0,1E0,3.3333334E-1,1.2E0,3.8E0,3.2E0,7.5E-1,6.2E0,4E0,6.4E0,1.2E0,4E-1,2E-1,3.2E0,1.4E0,1E0,3.6E0,5.4E0,6.610408E-2,8E-1,1.7018575E3,6.3707374E-2,7.5E-1,6E0,4.2E0,6.259085E-2,-4.7950596E-3,-2.0723515E-3,3.6271885E-2,-1.3519182E-3,2.3739524E-2,8.999386E-3,1.3029351E-2,-2.5814967E-4,1.6077472E-2,3.2858027E-3,4.1855495E-2,2.0965183E-2,1.4177583E-2,-9.711132E-3,3.6349294E-3,-1.4413814E-2,-3.516657E-2,1.3737596E-2,3.0188331E-2,4.1798558E-2,5.9958536E-2,1.1168245E-2,3.60219E-2,6.1657995E-2,4.225534E-3,1.1570758E-2],"split_indices":[3,0,0,1,3,1,1,3,0,0,0,3,1,0,0,0,3,3,1,1,1,1,0,0,3,4,0,3,0,1,0,0,0,0,0,0,0,0,0,0,0,0,0,0,0,0,0,0,0,0,0,0,0,0,0,0,0],"split_type":[0,0,0,0,0,0,0,0,0,0,0,0,0,0,0,0,0,0,0,0,0,0,0,0,0,0,0,0,0,0,0,0,0,0,0,0,0,0,0,0,0,0,0,0,0,0,0,0,0,0,0,0,0,0,0,0,0],"sum_hessian":[1.6586572E5,1.464228E5,1.944292E4,1.3488164E5,1.1541155E4,5.2383906E3,1.4204529E4,1.28039945E5,6.841701E3,1.5673789E3,9.973776E3,4.970498E3,2.6789282E2,2.675001E3,1.1529528E4,5.883327E4,6.920667E4,3.076644E3,3.7650571E3,8.823456E2,6.850333E2,1.6748103E3,8.298967E3,2.1685837E1,4.948812E3,2.5636182E2,1.153101E1,2.396103E3,2.7889798E2,1.1517913E4,1.1615693E1,3.173426E4,2.709901E4,6.693584E2,6.853731E4,5.9522174E2,2.481422E3,4.3646622E2,3.328591E3,3.3922E2,5.431256E2,2.2881738E2,4.5621594E2,1.5865979E3,8.821247E1,8.0499966E3,2.4896986E2,1.6329336E1,4.932483E3,1.3185257E2,1.2450924E2,6.457459E0,2.3896458E3,2.5978207E2,1.911592E1,1.0842191E4,6.757213E2],"tree_param":{"num_deleted":"0","num_feature":"6","num_nodes":"57","size_leaf_vector":"1"}},{"base_weights":[1.8517004E-1,8.0012664E-2,2.5457513E-1,3.3203192E-2,2.3893209E-1,2.4351746E-1,4.7289833E-1,4.2036411E-4,2.2990306E-1,2.43709E-1,-3.4519024E-2,2.0324261E-1,2.8295672E-1,4.891586E-1,-2.23265E-1,-6.657221E-2,3.4616463E-2,4.2405096E-1,1.9893554E-1,2.514171E-1,-1.1101104E-1,1.7977205E-1,2.6355895E-1,2.6710773E-1,3.2288522E-1,3.391884E-1,5.479548E-1,-5.1051486E-1,-5.5587576E-3,2.0016416E-3,-4.353472E-3,2.229094E-3,-1.6236942E-2,2.9869167E-2,1.7672187E-2,1.0387258E-2,-1.3360465E-2,2.2508739E-2,1.1904378E-2,-3.668745E-2,8.496436E-3,7.305601E-3,1.0695518E-2,1.8955253E-2,1.2054162E-2,2.6335785E-2,1.3171866E-2,1.618708E-2,-3.3834223E-2,1.8808428E-2,-1.5030374E-2,4.3726098E-2,2.5886035E-2,-3.4550354E-2,-2.1379549E-2,-2.410869E-2,1.3791447E-2],"categories":[],"categories_nodes":[],"categories_segments":[],"categories_sizes":[],"default_left":[0,0,0,0,0,0,0,0,0,0,0,0,0,0,0,0,0,0,0,0,0,0,0,0,0,0,0,0,0,0,0,0,0,0,0,0,0,0,0,0,0,0,0,0,0,0,0,0,0,0,0,0,0,0,0,0,0],"id":15,"left_children":[1,3,5,7,9,11,13,15,17,19,-1,21,23,25,27,29,31,33,35,37,39,41,43,45,47,49,51,53,55,-1,-1,-1,-1,-1,-1,-1,-1,-1,-1,-1,-1,-1,-1,-1,-1,-1,-1,-1,-1,-1,-1,-1,-1,-1,-1,-1,-1],"loss_changes":[1.2430767E3,5.0376505E2,2.4758447E2,3.3733835E2,6.856995E1,1.5506543E2,5.6086548E1,1.027288E2,4.4847137E1,4.194452E1,0E0,6.835925E1,3.1136719E1,4.2425903E1,7.098302E0,3.311709E1,1.06331604E2,1.23598175E1,2.6530975E1,3.9645386E1,5.7288395E1,3.9944214E1,3.505536E1,3.352173E1,1.2215454E1,3.237657E1,3.380713E1,4.3711185E-1,8.9317465E0,0E0,0E0,0E0,0E0,0E0,0E0,0E0,0E0,0E0,0E0,0E0,0E0,0E0,0E0,0E0,0E0,0E0,0E0,0E0,0E0,0E0,0E0,0E0,0E0,0E0,0E0,0E0,0E0],"parents":[2147483647,0,0,1,1,2,2,3,3,4,4,5,5,6,6,7,7,8,8,9,9,11,11,12,12,13,13,14,14,15,15,16,16,17,17,18,18,19,19,20,20,21,21,22,22,23,23,24,24,25,25,26,26,27,27,28,28],"right_children":[2,4,6,8,10,12,14,16,18,20,-1,22,24,26,28,30,32,34,36,38,40,42,44,46,48,50,52,54,56,-1,-1,-1,-1,-1,-1,-1,-1,-1,-1,-1,-1,-1,-1,-1,-1,-1,-1,-1,-1,-1,-1,-1,-1,-1,-1,-1,-1],"split_conditions":[4E-1,2E0,1E0,2E0,3.3333334E-1,5E-1,5E0,2E-1,2E-1,5E0,-3.4519024E-2,2E0,2.2E0,1E0,5.2E0,2E-1,2.5E-1,2.4E0,5E0,2E-1,5.2E0,1.2E0,1E0,6E-1,7E0,4.4E0,1.2E0,1.654228E3,1E0,2.0016416E-3,-4.353472E-3,2.229094E-3,-1.6236942E-2,2.9869167E-2,1.7672187E-2,1.0387258E-2,-1.3360465E-2,2.2508739E-2,1.1904378E-2,-3.668745E-2,8.496436E-3,7.305601E-3,1.0695518E-2,1.8955253E-2,1.2054162E-2,2.6335785E-2,1.3171866E-2,1.618708E-2,-3.3834223E-2,1.8808428E-2,-1.5030374E-2,4.3726098E-2,2.5886035E-2,-3.4550354E-2,-2.1379549E-2,-2.410869E-2,1.3791447E-2],"split_indices":[2,0,2,1,2,2,1,2,0,0,0,0,0,1,1,1,2,1,1,1,0,1,1,2,0,0,1,4,0,0,0,0,0,0,0,0,0,0,0,0,0,0,0,0,0,0,0,0,0,0,0,0,0,0,0,0,0],"split_type":[0,0,0,0,0,0,0,0,0,0,0,0,0,0,0,0,0,0,0,0,0,0,0,0,0,0,0,0,0,0,0,0,0,0,0,0,0,0,0,0,0,0,0,0,0,0,0,0,0,0,0,0,0,0,0,0,0],"sum_hessian":[1.7032238E5,6.772012E4,1.02602266E5,5.2312695E4,1.5407417E4,9.765817E4,4.944092E3,4.4840406E4,7.472289E3,1.5329357E4,7.805918E1,4.83203E4,4.933787E4,4.831539E3,1.1255266E2,1.5153224E4,2.9687184E4,1.0261628E3,6.446126E3,1.5003618E4,3.2573972E2,3.478758E4,1.3532721E4,3.5324168E4,1.4013705E4,1.3626438E3,3.4688953E3,4.794597E1,6.460669E1,2.4435403E3,1.2709684E4,2.8886984E4,8.002001E2,2.948589E2,7.3130396E2,6.327105E3,1.1902076E2,9.4090875E2,1.4062709E4,1.00766495E2,2.249732E2,1.751915E4,1.7268428E4,2.2011082E3,1.1331613E4,4.904748E2,3.483369E4,1.4002385E4,1.1319908E1,1.2885762E3,7.406758E1,2.9157584E2,3.1773196E3,1.2785032E1,3.5160934E1,2.3718573E1,4.088812E1],"tree_param":{"num_deleted":"0","num_feature":"6","num_nodes":"57","size_leaf_vector":"1"}},{"base_weights":[-1.9850618E-1,-1.12763055E-1,-3.9323527E-1,-5.5599682E-2,-2.9119056E-1,-3.0936646E-1,-5.385057E-1,-6.9695385E-3,-3.3831495E-1,-4.5676193E-1,-2.3416156E-1,-2.813152E-1,-3.8660255E-1,-4.8795015E-1,-3.4842923E-2,7.877479E-2,-1.3874838E-1,-4.615612E-1,-1.8615212E-1,-5.8421504E-1,-4.0593037E-1,-1.874011E-1,-3.5709095E-1,-3.6922315E-1,-2.2623968E-1,-5.245509E-1,-3.4371793E-1,-4.6703753E-1,-6.166874E-1,7.3569897E-3,2.1256686E-3,-9.086114E-3,-5.262576E-3,-3.1128017E-2,-2.1243885E-2,-6.105571E-3,-2.1231739E-2,-3.565152E-2,-2.7947215E-2,-1.7919505E-2,-2.6046768E-2,-5.9134946E-3,-1.3015072E-2,-1.82922E-2,3.2884378E-2,-1.6409418E-2,-2.6406277E-2,-1.7596032E-2,-9.9127395E-3,-2.1917496E-2,-2.99533E-2,-1.7452931E-2,5.074685E-3,-2.2564076E-2,-2.889964E-2,-2.8715564E-2,-3.3567756E-2],"categories":[],"categories_nodes":[],"categories_segments":[],"categories_sizes":[],"default_left":[0,0,0,0,0,0,0,0,0,0,0,0,0,0,0,0,0,0,0,0,0,0,0,0,0,0,0,0,0,0,0,0,0,0,0,0,0,0,0,0,0,0,0,0,0,0,0,0,0,0,0,0,0,0,0,0,0],"id":16,"left_children":[1,3,5,7,9,11,13,15,17,19,21,23,25,27,-1,29,31,33,35,37,39,41,43,45,47,49,51,53,55,-1,-1,-1,-1,-1,-1,-1,-1,-1,-1,-1,-1,-1,-1,-1,-1,-1,-1,-1,-1,-1,-1,-1,-1,-1,-1,-1,-1],"loss_changes":[2.6918032E3,1.1416692E3,6.003198E2,1.1655487E3,2.563435E2,6.759448E1,1.4406738E2,8.1734937E2,2.3325037E2,4.4835205E1,1.1606714E2,1.10920044E2,4.905664E1,3.6531982E1,0E0,1.0863025E2,4.1026367E1,4.03313E1,8.501085E1,6.0510864E0,2.7023254E1,7.374121E1,4.9682312E1,5.7401E1,4.9516907E1,1.240332E1,1.5138794E1,2.0314453E1,4.034668E0,0E0,0E0,0E0,0E0,0E0,0E0,0E0,0E0,0E0,0E0,0E0,0E0,0E0,0E0,0E0,0E0,0E0,0E0,0E0,0E0,0E0,0E0,0E0,0E0,0E0,0E0,0E0,0E0],"parents":[2147483647,0,0,1,1,2,2,3,3,4,4,5,5,6,6,7,7,8,8,9,9,10,10,11,11,12,12,13,13,15,15,16,16,17,17,18,18,19,19,20,20,21,21,22,22,23,23,24,24,25,25,26,26,27,27,28,28],"right_children":[2,4,6,8,10,12,14,16,18,20,22,24,26,28,-1,30,32,34,36,38,40,42,44,46,48,50,52,54,56,-1,-1,-1,-1,-1,-1,-1,-1,-1,-1,-1,-1,-1,-1,-1,-1,-1,-1,-1,-1,-1,-1,-1,-1,-1,-1,-1,-1],"split_conditions":[6E-1,2E0,6.666667E-1,2E0,1.2E0,2.2E0,1E0,3.3333334E-1,1.2E0,4E-1,3E0,1E0,1.2E0,3E0,-3.4842923E-2,2E-1,1E0,2E-1,3E0,2.2E0,3E0,2.2E0,5E-1,2E0,1E0,2.8E0,5.2E0,2.8E0,3.8E0,7.3569897E-3,2.1256686E-3,-9.086114E-3,-5.262576E-3,-3.1128017E-2,-2.1243885E-2,-6.105571E-3,-2.1231739E-2,-3.565152E-2,-2.7947215E-2,-1.7919505E-2,-2.6046768E-2,-5.9134946E-3,-1.3015072E-2,-1.82922E-2,3.2884378E-2,-1.6409418E-2,-2.6406277E-2,-1.7596032E-2,-9.9127395E-3,-2.1917496E-2,-2.99533E-2,-1.7452931E-2,5.074685E-3,-2.2564076E-2,-2.889964E-2,-2.8715564E-2,-3.3567756E-2],"split_indices":[3,1,3,0,0,0,3,3,1,0,1,0,1,1,0,3,0,1,0,1,1,0,3,1,1,0,0,0,1,0,0,0,0,0,0,0,0,0,0,0,0,0,0,0,0,0,0,0,0,0,0,0,0,0,0,0,0],"split_type":[0,0,0,0,0,0,0,0,0,0,0,0,0,0,0,0,0,0,0,0,0,0,0,0,0,0,0,0,0,0,0,0,0,0,0,0,0,0,0,0,0,0,0,0,0,0,0,0,0,0,0,0,0,0,0,0,0],"sum_hessian":[1.6121952E5,1.1193422E5,4.9285297E4,8.477569E4,2.7158535E4,3.1248033E4,1.8037266E4,7.23344E4,1.2441289E4,6.9560728E3,2.0202463E4,2.292616E4,8.321873E3,1.3675366E4,4.3618984E3,4.382152E4,2.8512875E4,6.872658E3,5.568631E3,1.9802856E3,4.975787E3,1.4637215E4,5.5652485E3,8.8286875E3,1.4097473E4,1.970872E3,6.351001E3,1.1768304E4,1.907063E3,1.5186601E4,2.8634918E4,1.2487696E4,1.602518E4,1.272379E3,5.6002793E3,4.3910083E3,1.1776228E3,3.20312E2,1.6599736E3,3.5234104E3,1.4523766E3,7.5141685E3,7.1230464E3,5.5182896E3,4.695896E1,7.019137E3,1.8095505E3,2.565256E3,1.1532217E4,9.169741E2,1.0538978E3,6.275932E3,7.506916E1,1.03094E4,1.458903E3,1.0807872E3,8.2627576E2],"tree_param":{"num_deleted":"0","num_feature":"6","num_nodes":"57","size_leaf_vector":"1"}},{"base_weights":[1.9227207E-3,-2.0498533E-2,1.705931E-1,-3.4689125E-2,9.97773E-2,2.8851745E-1,1.2711509E-1,-6.2434778E-2,-1.1274836E-2,2.4752395E-1,7.7371866E-2,6.3028626E-2,2.8459933E-1,1.110233E-1,3.5941744E-1,-7.754881E-2,-4.3735433E-2,6.7462754E-1,-1.7533813E-2,8.2977064E-2,5.6218E-1,8.484015E-2,-2.9614562E-1,-3.457315E-2,2.8743783E-1,5.4092455E-1,1.08014904E-1,3.400753E-1,6.0494907E-2,-3.4505602E-3,-5.250172E-3,-1.9932033E-3,-2.6821265E-2,3.0314658E-2,6.059053E-2,4.3166834E-3,-1.2911182E-3,-1.4361885E-3,1.0054207E-2,2.8820738E-2,-4.6412637E-3,6.294418E-3,2.925052E-3,-3.1974073E-2,-5.2034843E-4,1.898869E-2,1.3993965E-2,-2.6476217E-2,2.8687641E-2,-3.5260107E-2,5.4565473E-3,1.8046858E-2,7.88379E-3],"categories":[],"categories_nodes":[],"categories_segments":[],"categories_sizes":[],"default_left":[0,0,0,0,0,0,0,0,0,0,0,0,0,0,0,0,0,0,0,0,0,0,0,0,0,0,0,0,0,0,0,0,0,0,0,0,0,0,0,0,0,0,0,0,0,0,0,0,0,0,0,0,0],"id":17,"left_children":[1,3,5,7,9,11,13,15,17,19,21,-1,23,25,27,29,31,33,35,37,39,41,43,-1,45,47,49,51,-1,-1,-1,-1,-1,-1,-1,-1,-1,-1,-1,-1,-1,-1,-1,-1,-1,-1,-1,-1,-1,-1,-1,-1,-1],"loss_changes":[6.2655743E2,2.4959995E2,9.963074E1,8.49765E1,5.106952E1,1.958191E1,5.3059113E1,1.6915924E1,3.0456592E2,1.0514909E2,3.7411446E1,0E0,1.4649841E1,1.7124283E1,1.471888E1,7.7525177E0,5.1022385E1,2.2814362E1,6.0524902E1,1.7621609E1,6.5567627E0,1.4199692E1,2.5789154E1,0E0,3.5239868E0,3.539486E0,1.2052231E1,3.3704681E0,0E0,0E0,0E0,0E0,0E0,0E0,0E0,0E0,0E0,0E0,0E0,0E0,0E0,0E0,0E0,0E0,0E0,0E0,0E0,0E0,0E0,0E0,0E0,0E0,0E0],"parents":[2147483647,0,0,1,1,2,2,3,3,4,4,5,5,6,6,7,7,8,8,9,9,10,10,12,12,13,13,14,14,15,15,16,16,17,17,18,18,19,19,20,20,21,21,22,22,24,24,25,25,26,26,27,27],"right_children":[2,4,6,8,10,12,14,16,18,20,22,-1,24,26,28,30,32,34,36,38,40,42,44,-1,46,48,50,52,-1,-1,-1,-1,-1,-1,-1,-1,-1,-1,-1,-1,-1,-1,-1,-1,-1,-1,-1,-1,-1,-1,-1,-1,-1],"split_conditions":[6.666667E-1,2.8E0,1E0,3.3333334E-1,2E-1,7.5E-1,4.2E0,1.2E0,4E-1,3.8E0,5.4E0,6.3028626E-2,8E-1,7.5E-1,6.4E0,1E0,2.5E-1,2E0,2E-1,3.2E0,6.8E0,3.2E0,5.8E0,-3.457315E-2,1.5582855E3,1.5361117E3,8E-1,1.8252388E3,6.0494907E-2,-3.4505602E-3,-5.250172E-3,-1.9932033E-3,-2.6821265E-2,3.0314658E-2,6.059053E-2,4.3166834E-3,-1.2911182E-3,-1.4361885E-3,1.0054207E-2,2.8820738E-2,-4.6412637E-3,6.294418E-3,2.925052E-3,-3.1974073E-2,-5.2034843E-4,1.898869E-2,1.3993965E-2,-2.6476217E-2,2.8687641E-2,-3.5260107E-2,5.4565473E-3,1.8046858E-2,7.88379E-3],"split_indices":[3,0,0,3,3,3,0,0,3,0,0,0,3,3,0,0,3,0,0,0,0,0,0,0,4,5,3,4,0,0,0,0,0,0,0,0,0,0,0,0,0,0,0,0,0,0,0,0,0,0,0,0,0],"split_type":[0,0,0,0,0,0,0,0,0,0,0,0,0,0,0,0,0,0,0,0,0,0,0,0,0,0,0,0,0,0,0,0,0,0,0,0,0,0,0,0,0,0,0,0,0,0,0,0,0,0,0,0,0],"sum_hessian":[1.6567505E5,1.4623677E5,1.9438287E4,1.3080466E5,1.5432111E4,5.234701E3,1.4203587E4,5.9864395E4,7.094026E4,2.0307604E3,1.3401351E4,1.972736E1,5.214974E3,1.3284814E4,9.1877246E2,3.3104242E4,2.6760154E4,6.4052264E2,7.0299734E4,1.3342754E3,6.96485E2,1.3139408E4,2.6194263E2,1.4418232E1,5.2005557E3,9.107681E1,1.3193737E4,8.9971063E2,1.9061872E1,2.5254373E4,7.8498687E3,2.6552594E4,2.0755911E2,5.701263E2,7.039636E1,5.1945923E3,6.510514E4,6.861241E2,6.4815125E2,6.8178815E2,1.4696852E1,5.1342114E3,8.005197E3,1.1841743E2,1.435252E2,3.8977432E2,4.8107812E3,2.2598095E0,8.8817E1,1.7217289E1,1.317652E4,8.0649E2,9.322063E1],"tree_param":{"num_deleted":"0","num_feature":"6","num_nodes":"53","size_leaf_vector":"1"}},{"base_weights":[1.7675458E-1,7.570143E-2,2.4311315E-1,3.6909327E-2,2.4867173E-1,2.3268823E-1,4.459515E-1,-3.100428E-2,7.118774E-2,2.5496274E-1,-3.4529053E-2,1.949545E-1,2.6953804E-1,4.6106413E-1,-2.3180273E-1,8.309894E-2,-5.1943548E-2,8.040123E-2,-3.001988E-1,2.6529494E-1,-1.2846386E-1,1.7453392E-1,2.4753292E-1,2.520297E-1,3.1325164E-1,2.9125765E-1,5.1003313E-1,-5.7951784E-1,1.28705185E-2,2.4299703E-3,6.581188E-3,-4.6591945E-3,3.5446938E-4,9.561773E-3,3.3328042E-3,6.655024E-2,-1.6938498E-2,1.39365215E-2,7.9443455E-3,-3.7171956E-2,8.2362415E-3,1.0006532E-2,7.7543417E-3,1.327946E-2,1.0071198E-2,2.4767434E-2,1.2423706E-2,1.5721222E-2,-3.59733E-2,1.0545052E-2,1.636204E-2,2.742131E-2,1.9746386E-2,-1.365837E-2,-3.1269092E-2,1.07961325E-2,-8.749575E-3],"categories":[],"categories_nodes":[],"categories_segments":[],"categories_sizes":[],"default_left":[0,0,0,0,0,0,0,0,0,0,0,0,0,0,0,0,0,0,0,0,0,0,0,0,0,0,0,0,0,0,0,0,0,0,0,0,0,0,0,0,0,0,0,0,0,0,0,0,0,0,0,0,0,0,0,0,0],"id":18,"left_children":[1,3,5,7,9,11,13,15,17,19,-1,21,23,25,27,29,31,33,35,37,39,41,43,45,47,49,51,53,55,-1,-1,-1,-1,-1,-1,-1,-1,-1,-1,-1,-1,-1,-1,-1,-1,-1,-1,-1,-1,-1,-1,-1,-1,-1,-1,-1,-1],"loss_changes":[1.1441968E3,4.5382413E2,2.1768994E2,1.28617E2,7.3386536E1,1.3616504E2,5.1664978E1,4.428281E1,1.25658005E2,4.879492E1,0E0,5.1928345E1,3.7851562E1,4.0797607E1,9.404909E0,4.8048744E0,3.8124325E1,5.4568893E1,5.638616E1,1.709082E1,5.847613E1,1.7325562E1,1.1217834E1,3.049585E1,1.7387451E1,3.1247177E0,1.666803E1,4.704876E-1,2.5483258E0,0E0,0E0,0E0,0E0,0E0,0E0,0E0,0E0,0E0,0E0,0E0,0E0,0E0,0E0,0E0,0E0,0E0,0E0,0E0,0E0,0E0,0E0,0E0,0E0,0E0,0E0,0E0,0E0],"parents":[2147483647,0,0,1,1,2,2,3,3,4,4,5,5,6,6,7,7,8,8,9,9,11,11,12,12,13,13,14,14,15,15,16,16,17,17,18,18,19,19,20,20,21,21,22,22,23,23,24,24,25,25,26,26,27,27,28,28],"right_children":[2,4,6,8,10,12,14,16,18,20,-1,22,24,26,28,30,32,34,36,38,40,42,44,46,48,50,52,54,56,-1,-1,-1,-1,-1,-1,-1,-1,-1,-1,-1,-1,-1,-1,-1,-1,-1,-1,-1,-1,-1,-1,-1,-1,-1,-1,-1,-1],"split_conditions":[4E-1,2.2E0,1E0,2E-1,3.3333334E-1,5E-1,5E0,2E-1,2.5E-1,5E0,-3.4529053E-2,2E0,2.2E0,8E-1,5.2E0,1.723457E3,1.2E0,2E-1,2E-1,3.8E0,5.2E0,1E0,3E0,6E-1,7E0,1.6552686E3,3E0,1.5848137E3,5.6E0,2.4299703E-3,6.581188E-3,-4.6591945E-3,3.5446938E-4,9.561773E-3,3.3328042E-3,6.655024E-2,-1.6938498E-2,1.39365215E-2,7.9443455E-3,-3.7171956E-2,8.2362415E-3,1.0006532E-2,7.7543417E-3,1.327946E-2,1.0071198E-2,2.4767434E-2,1.2423706E-2,1.5721222E-2,-3.59733E-2,1.0545052E-2,1.636204E-2,2.742131E-2,1.9746386E-2,-1.365837E-2,-3.1269092E-2,1.07961325E-2,-8.749575E-3],"split_indices":[3,1,3,3,3,3,1,1,3,1,0,1,1,1,1,4,1,1,1,1,1,1,1,3,1,4,1,5,1,0,0,0,0,0,0,0,0,0,0,0,0,0,0,0,0,0,0,0,0,0,0,0,0,0,0,0,0],"split_type":[0,0,0,0,0,0,0,0,0,0,0,0,0,0,0,0,0,0,0,0,0,0,0,0,0,0,0,0,0,0,0,0,0,0,0,0,0,0,0,0,0,0,0,0,0,0,0,0,0,0,0,0,0,0,0,0,0],"sum_hessian":[1.706312E5,6.763555E4,1.0299566E5,5.5246594E4,1.2388958E4,9.7962984E4,5.032677E3,1.8531475E4,3.6715117E4,1.2307254E4,8.170421E1,4.840411E4,4.955887E4,4.9232183E3,1.094587E2,2.8729727E3,1.5658502E4,3.582709E4,8.8802704E2,1.1984612E4,3.2264084E2,3.4866766E4,1.3537347E4,3.5390758E4,1.4168113E4,1.10353E3,3.8196882E3,4.4644314E1,6.4814384E1,1.6803213E3,1.1926512E3,9.218141E3,6.4403613E3,3.9514634E3,3.1875627E4,1.9739061E1,8.6828796E2,1.0639597E4,1.3450156E3,1.0366453E2,2.189763E2,1.5049268E4,1.9817498E4,9.724479E3,3.8128684E3,5.0771545E2,3.4883043E4,1.4152736E4,1.5376856E1,3.434368E2,7.600932E2,2.8614832E3,9.5820496E2,6.719197E0,3.7925117E1,3.1076136E1,3.373825E1],"tree_param":{"num_deleted":"0","num_feature":"6","num_nodes":"57","size_leaf_vector":"1"}},{"base_weights":[-1.9120224E-1,-1.0353017E-1,-3.903633E-1,-4.8045903E-2,-2.7750275E-1,-3.0638218E-1,-5.360352E-1,3.195106E-2,-1.6660759E-1,-2.205925E-1,-3.704923E-1,-2.825865E-1,-3.7250468E-1,-4.8481625E-1,-3.4890115E-2,9.554144E-2,-1.708594E-3,-2.202477E-1,-1.2658527E-1,-2.2466856E-1,3.7746012E-1,-3.7871358E-1,7.2590023E-1,-3.6521217E-1,-2.3076582E-1,-3.4466627E-1,-4.1563812E-1,-4.640134E-1,-6.1235064E-1,-7.362953E-4,5.8330437E-3,-2.9192085E-4,1.824036E-2,-1.126141E-2,5.859545E-3,2.286887E-3,-9.684677E-3,-9.061934E-3,-1.3703691E-2,1.2103811E-2,2.8428901E-2,-1.9021174E-2,6.527742E-2,3.1046016E-2,6.45517E-2,-2.0339321E-2,-1.7656475E-2,-1.2203432E-2,-7.5333263E-3,-1.6755981E-2,-1.903358E-2,-2.1294048E-2,-4.822557E-3,-2.6403492E-2,-2.2209615E-2,-2.8481204E-2,-3.3402402E-2],"categories":[],"categories_nodes":[],"categories_segments":[],"categories_sizes":[],"default_left":[0,0,0,0,0,0,0,0,0,0,0,0,0,0,0,0,0,0,0,0,0,0,0,0,0,0,0,0,0,0,0,0,0,0,0,0,0,0,0,0,0,0,0,0,0,0,0,0,0,0,0,0,0,0,0,0,0],"id":19,"left_children":[1,3,5,7,9,11,13,15,17,19,21,23,25,27,-1,29,31,33,35,37,39,41,43,45,47,49,51,53,55,-1,-1,-1,-1,-1,-1,-1,-1,-1,-1,-1,-1,-1,-1,-1,-1,-1,-1,-1,-1,-1,-1,-1,-1,-1,-1,-1,-1],"loss_changes":[2.7987397E3,1.0743079E3,5.9919727E2,8.0036914E2,1.4233911E2,4.8795654E1,1.4809473E2,1.0785346E2,7.295953E1,4.078784E1,9.235828E1,9.778955E1,9.728882E0,3.582373E1,0E0,4.0616257E1,4.9875767E1,2.443927E1,2.2520047E2,3.553595E1,2.7966118E0,2.9700806E1,3.7296066E0,4.28125E0,1.4934937E1,1.59198E0,1.0486328E1,1.4627441E1,4.154114E0,0E0,0E0,0E0,0E0,0E0,0E0,0E0,0E0,0E0,0E0,0E0,0E0,0E0,0E0,0E0,0E0,0E0,0E0,0E0,0E0,0E0,0E0,0E0,0E0,0E0,0E0,0E0,0E0],"parents":[2147483647,0,0,1,1,2,2,3,3,4,4,5,5,6,6,7,7,8,8,9,9,10,10,11,11,12,12,13,13,15,15,16,16,17,17,18,18,19,19,20,20,21,21,22,22,23,23,24,24,25,25,26,26,27,27,28,28],"right_children":[2,4,6,8,10,12,14,16,18,20,22,24,26,28,-1,30,32,34,36,38,40,42,44,46,48,50,52,54,56,-1,-1,-1,-1,-1,-1,-1,-1,-1,-1,-1,-1,-1,-1,-1,-1,-1,-1,-1,-1,-1,-1,-1,-1,-1,-1,-1,-1],"split_conditions":[6E-1,2E0,6.666667E-1,3.3333334E-1,2.8E0,2.2E0,1E0,2E-1,1E0,5E-1,5E-1,1E0,3E0,3E0,-3.4890115E-2,2E-1,2.5E-1,5E-1,1.2E0,3.3333334E-1,2.6E0,7.8E0,4E0,2E-1,2E0,1.778835E3,5.2E0,8E-1,3.8E0,-7.362953E-4,5.8330437E-3,-2.9192085E-4,1.824036E-2,-1.126141E-2,5.859545E-3,2.286887E-3,-9.684677E-3,-9.061934E-3,-1.3703691E-2,1.2103811E-2,2.8428901E-2,-1.9021174E-2,6.527742E-2,3.1046016E-2,6.45517E-2,-2.0339321E-2,-1.7656475E-2,-1.2203432E-2,-7.5333263E-3,-1.6755981E-2,-1.903358E-2,-2.1294048E-2,-4.822557E-3,-2.6403492E-2,-2.2209615E-2,-2.8481204E-2,-3.3402402E-2],"split_indices":[2,1,2,2,1,1,2,2,1,2,2,1,1,1,0,1,2,2,1,2,1,1,1,1,1,5,1,1,1,0,0,0,0,0,0,0,0,0,0,0,0,0,0,0,0,0,0,0,0,0,0,0,0,0,0,0,0],"split_type":[0,0,0,0,0,0,0,0,0,0,0,0,0,0,0,0,0,0,0,0,0,0,0,0,0,0,0,0,0,0,0,0,0,0,0,0,0,0,0,0,0,0,0,0,0,0,0,0,0,0,0,0,0,0,0,0,0],"sum_hessian":[1.6028777E5,1.11296016E5,4.8991742E4,8.438483E4,2.6911188E4,3.1078066E4,1.7913678E4,5.03876E4,3.3997227E4,1.6696307E4,1.0214881E4,2.2857535E4,8.220531E3,1.3608828E4,4.3048496E3,1.7439246E4,3.2948355E4,1.4525222E4,1.9472006E4,1.6583902E4,1.1240418E2,1.0139505E4,7.5376305E1,8.80782E3,1.4049715E4,5.001526E3,3.2190054E3,1.1704309E4,1.9045192E3,2.803275E3,1.4635972E4,3.2582209E4,3.6614542E2,1.431428E4,2.1094154E2,5.4577407E3,1.4014266E4,8.82815E3,7.7557515E3,6.712259E1,4.5281597E1,1.0129994E4,9.510124E0,6.533778E1,1.0038519E1,1.9760208E3,6.8317993E3,1.2046925E4,2.0027893E3,3.9614653E3,1.0400605E3,3.1185945E3,1.0041092E2,2.7597847E3,8.944524E3,1.0841066E3,8.204126E2],"tree_param":{"num_deleted":"0","num_feature":"6","num_nodes":"57","size_leaf_vector":"1"}},{"base_weights":[3.0876985E-3,-1.8377189E-2,1.6374832E-1,-3.0693961E-2,1.2446013E-1,2.7774057E-1,1.2141609E-1,-3.8594294E-2,1.1435082E-1,3.3986548E-1,8.972604E-2,2.5545466E-1,6.700114E-1,2.69153E-1,8.6831376E-2,-6.655764E-2,-1.4851298E-2,2.2493377E-1,-2.9767419E-3,1.9193722E-1,5.346117E-1,2.6759118E-1,5.290826E-2,6.0468126E-2,2.5137943E-1,6.3911504E-1,6.0489256E-2,2.154232E-1,7.1427304E-1,7.753185E-2,2.3338494E-1,-4.5037023E-3,-1.9433445E-3,3.2820843E-2,-1.0704354E-3,2.1823725E-2,8.944625E-3,3.1466823E-4,-2.9392272E-2,2.4902932E-2,8.275512E-3,4.0326014E-2,1.9641785E-2,1.4602122E-2,-1.1251745E-2,3.2154971E-3,-1.4977716E-2,-3.4639962E-2,1.2732476E-2,2.6978413E-2,3.68858E-2,5.665941E-2,1.0611942E-2,3.1068204E-2,4.63561E-2,4.119006E-3,-1.1449362E-2,4.089249E-3,2.224569E-2],"categories":[],"categories_nodes":[],"categories_segments":[],"categories_sizes":[],"default_left":[0,0,0,0,0,0,0,0,0,0,0,0,0,0,0,0,0,0,0,0,0,0,0,0,0,0,0,0,0,0,0,0,0,0,0,0,0,0,0,0,0,0,0,0,0,0,0,0,0,0,0,0,0,0,0,0,0,0,0],"id":20,"left_children":[1,3,5,7,9,11,13,15,17,19,21,23,25,27,29,31,33,35,37,39,41,43,45,-1,47,49,-1,51,53,55,57,-1,-1,-1,-1,-1,-1,-1,-1,-1,-1,-1,-1,-1,-1,-1,-1,-1,-1,-1,-1,-1,-1,-1,-1,-1,-1,-1,-1],"loss_changes":[5.717217E2,2.5729465E2,9.425311E1,1.5428601E2,8.683336E1,4.607773E1,7.2784775E1,8.477254E1,9.023679E1,4.6330093E1,6.5465836E1,1.9162476E1,3.9595032E0,6.448126E1,1.5720657E1,3.8176117E1,3.039747E2,3.4793472E1,1.830518E1,7.340435E0,2.6484055E1,2.0718376E1,3.3315918E1,0E0,1.5575684E1,2.2574158E0,0E0,6.811203E0,5.1717834E0,1.6158653E1,2.2044365E1,0E0,0E0,0E0,0E0,0E0,0E0,0E0,0E0,0E0,0E0,0E0,0E0,0E0,0E0,0E0,0E0,0E0,0E0,0E0,0E0,0E0,0E0,0E0,0E0,0E0,0E0,0E0,0E0],"parents":[2147483647,0,0,1,1,2,2,3,3,4,4,5,5,6,6,7,7,8,8,9,9,10,10,11,11,12,12,13,13,14,14,15,15,16,16,17,17,18,18,19,19,20,20,21,21,22,22,24,24,25,25,27,27,28,28,29,29,30,30],"right_children":[2,4,6,8,10,12,14,16,18,20,22,24,26,28,30,32,34,36,38,40,42,44,46,-1,48,50,-1,52,54,56,58,-1,-1,-1,-1,-1,-1,-1,-1,-1,-1,-1,-1,-1,-1,-1,-1,-1,-1,-1,-1,-1,-1,-1,-1,-1,-1,-1,-1],"split_conditions":[6.666667E-1,3E0,1E0,3E0,2E-1,4E0,1E0,3.3333334E-1,1.4E0,3.8E0,3.2E0,7.5E-1,6.2E0,4E0,4.2E0,1.2E0,4E-1,2E-1,5.4E0,2E-1,1E0,3.6E0,5.4E0,6.0468126E-2,8E-1,1.6979722E3,6.0489256E-2,7.5E-1,5E0,4E0,4.4E0,-4.5037023E-3,-1.9433445E-3,3.2820843E-2,-1.0704354E-3,2.1823725E-2,8.944625E-3,3.1466823E-4,-2.9392272E-2,2.4902932E-2,8.275512E-3,4.0326014E-2,1.9641785E-2,1.4602122E-2,-1.1251745E-2,3.2154971E-3,-1.4977716E-2,-3.4639962E-2,1.2732476E-2,2.6978413E-2,3.68858E-2,5.665941E-2,1.0611942E-2,3.1068204E-2,4.63561E-2,4.119006E-3,-1.1449362E-2,4.089249E-3,2.224569E-2],"split_indices":[3,1,0,0,3,1,1,3,1,1,1,3,1,0,1,1,3,3,0,0,0,0,1,0,3,4,0,3,0,1,0,0,0,0,0,0,0,0,0,0,0,0,0,0,0,0,0,0,0,0,0,0,0,0,0,0,0,0,0],"split_type":[0,0,0,0,0,0,0,0,0,0,0,0,0,0,0,0,0,0,0,0,0,0,0,0,0,0,0,0,0,0,0,0,0,0,0,0,0,0,0,0,0,0,0,0,0,0,0,0,0,0,0,0,0,0,0,0,0,0,0],"sum_hessian":[1.6578366E5,1.4624556E5,1.9538092E4,1.346367E5,1.1608854E4,5.289355E3,1.4248736E4,1.2768278E5,6.953922E3,1.6107732E3,9.998081E3,5.0065703E3,2.8278488E2,2.7015662E3,1.154717E4,5.862974E4,6.905305E4,3.5793833E3,3.3745388E3,9.1655115E2,6.9422205E2,1.71358E3,8.284501E3,2.0039701E1,4.9865303E3,2.6954056E2,1.3244306E1,2.4119116E3,2.8965442E2,1.0859605E4,6.875651E2,3.1703357E4,2.692638E4,6.67073E2,6.838597E4,6.3827814E2,2.9411052E3,3.322861E3,5.167775E1,7.141836E1,8.451328E2,2.3631357E2,4.5790845E2,1.6329371E3,8.0642815E1,8.0256978E3,2.5880273E2,1.6483122E1,4.9700474E3,1.3734763E2,1.3219293E2,7.112642E0,2.404799E3,2.0436707E2,8.528735E1,1.0691231E4,1.6837381E2,4.0132642E2,2.862387E2],"tree_param":{"num_deleted":"0","num_feature":"6","num_nodes":"59","size_leaf_vector":"1"}},{"base_weights":[1.701984E-1,7.125108E-2,2.3516479E-1,2.6653098E-2,2.2087407E-1,2.2611068E-1,4.8808765E-1,-6.4492077E-3,1.8679695E-1,2.2541125E-1,-3.4003448E-2,1.8114397E-1,2.678212E-1,6.883376E-1,4.1767302E-1,-9.183968E-2,3.5527088E-2,5.542237E-1,1.7736356E-1,1.3454424E-1,2.4812098E-1,-3.5992004E-2,1.979415E-1,2.5846922E-1,4.5350802E-1,7.430961E-1,4.6667215E-1,4.2947406E-1,-1.6188098E-1,7.211391E-4,-5.612188E-3,2.2678513E-3,-1.7471457E-2,3.1394448E-2,2.0920811E-2,9.154105E-3,-2.2313626E-2,5.5327695E-3,1.645925E-2,1.2834571E-2,-3.8307928E-3,1.2822385E-2,-3.8797525E-3,6.4456896E-3,1.0482971E-2,1.21250665E-2,1.4932877E-2,1.6129425E-2,3.1863447E-2,3.3392847E-2,4.5217555E-2,1.3057448E-2,4.3758098E-2,1.4001071E-2,2.3590697E-2,-2.606071E-2,4.210245E-3],"categories":[],"categories_nodes":[],"categories_segments":[],"categories_sizes":[],"default_left":[0,0,0,0,0,0,0,0,0,0,0,0,0,0,0,0,0,0,0,0,0,0,0,0,0,0,0,0,0,0,0,0,0,0,0,0,0,0,0,0,0,0,0,0,0,0,0,0,0,0,0,0,0,0,0,0,0],"id":21,"left_children":[1,3,5,7,9,11,13,15,17,19,-1,21,23,25,27,29,31,33,35,37,39,41,43,45,47,49,51,53,55,-1,-1,-1,-1,-1,-1,-1,-1,-1,-1,-1,-1,-1,-1,-1,-1,-1,-1,-1,-1,-1,-1,-1,-1,-1,-1,-1,-1],"loss_changes":[1.1024463E3,4.5358838E2,2.3696875E2,2.7761063E2,6.3957947E1,1.8741943E2,5.01521E1,1.555598E2,3.099408E1,3.201642E1,0E0,1.7545056E2,8.992456E1,1.0930328E1,1.81875E1,3.1013527E1,1.1011925E2,1.978981E0,3.1277313E1,1.4413517E1,3.4599243E1,4.2051964E1,3.6086792E1,3.160791E1,5.957599E1,8.414673E0,1.5448448E1,1.6297913E1,4.7827787E0,0E0,0E0,0E0,0E0,0E0,0E0,0E0,0E0,0E0,0E0,0E0,0E0,0E0,0E0,0E0,0E0,0E0,0E0,0E0,0E0,0E0,0E0,0E0,0E0,0E0,0E0,0E0,0E0],"parents":[2147483647,0,0,1,1,2,2,3,3,4,4,5,5,6,6,7,7,8,8,9,9,11,11,12,12,13,13,14,14,15,15,16,16,17,17,18,18,19,19,20,20,21,21,22,22,23,23,24,24,25,25,26,26,27,27,28,28],"right_children":[2,4,6,8,10,12,14,16,18,20,-1,22,24,26,28,30,32,34,36,38,40,42,44,46,48,50,52,54,56,-1,-1,-1,-1,-1,-1,-1,-1,-1,-1,-1,-1,-1,-1,-1,-1,-1,-1,-1,-1,-1,-1,-1,-1,-1,-1,-1,-1],"split_conditions":[4E-1,2E0,1E0,5E-1,3.3333334E-1,5E-1,7.5E-1,2E-1,6E-1,2.2E0,-3.4003448E-2,2E-1,1E0,3E0,5E0,2E-1,2.5E-1,1.2E0,2.5E-1,6.666667E-1,5E0,2E-1,2.5E-1,2.2E0,3.3333334E-1,5E-1,4E0,8E-1,5.2E0,7.211391E-4,-5.612188E-3,2.2678513E-3,-1.7471457E-2,3.1394448E-2,2.0920811E-2,9.154105E-3,-2.2313626E-2,5.5327695E-3,1.645925E-2,1.2834571E-2,-3.8307928E-3,1.2822385E-2,-3.8797525E-3,6.4456896E-3,1.0482971E-2,1.21250665E-2,1.4932877E-2,1.6129425E-2,3.1863447E-2,3.3392847E-2,4.5217555E-2,1.3057448E-2,4.3758098E-2,1.4001071E-2,2.3590697E-2,-2.606071E-2,4.210245E-3],"split_indices":[2,1,3,3,2,2,2,2,3,1,0,3,2,1,1,1,2,1,2,3,1,1,3,1,3,2,1,1,1,0,0,0,0,0,0,0,0,0,0,0,0,0,0,0,0,0,0,0,0,0,0,0,0,0,0,0,0],"split_type":[0,0,0,0,0,0,0,0,0,0,0,0,0,0,0,0,0,0,0,0,0,0,0,0,0,0,0,0,0,0,0,0,0,0,0,0,0,0,0,0,0,0,0,0,0,0,0,0,0,0,0,0,0,0,0,0,0],"sum_hessian":[1.7150186E5,6.797476E4,1.0352711E5,5.2366965E4,1.5607792E4,9.995096E4,3.5761455E3,4.3397508E4,8.96946E3,1.553033E4,7.74614E1,4.8100625E4,5.185034E4,9.280676E2,2.648078E3,1.4302136E4,2.9095371E4,2.2307379E2,8.746386E3,3.1066836E3,1.2423647E4,3.4537712E3,4.464685E4,4.9366434E4,2.4839067E3,7.423347E2,1.8573286E2,2.5954868E3,5.259109E1,2.303907E3,1.1998229E4,2.8371773E4,7.2359656E2,1.4227635E2,8.079744E1,8.667613E3,7.8772644E1,2.7684692E3,3.382142E2,1.2104397E4,3.1924927E2,4.2950354E2,3.0242676E3,6.480949E3,3.8165902E4,3.5334223E4,1.4032209E4,1.4521123E3,1.0317946E3,5.0967133E2,2.326634E2,1.2465471E2,6.1078144E1,5.746569E2,2.0208298E3,2.0922363E1,3.166873E1],"tree_param":{"num_deleted":"0","num_feature":"6","num_nodes":"57","size_leaf_vector":"1"}},{"base_weights":[-1.8586548E-1,-1.0433275E-1,-3.7473366E-1,-5.041967E-2,-2.7518293E-1,-2.9461655E-1,-5.168494E-1,-3.625606E-3,-3.2394266E-1,-4.4534189E-1,-2.1635589E-1,-2.703613E-1,-3.6220166E-1,-4.657252E-1,-3.403683E-2,7.762559E-2,-1.2904604E-1,-4.4818607E-1,-1.7063893E-1,-5.7662565E-1,-3.9279717E-1,-1.7224444E-1,-3.3466125E-1,-3.5383058E-1,-2.1874863E-1,-4.9172622E-1,-3.2199112E-1,-4.433031E-1,-6.04713E-1,5.562255E-3,6.344215E-4,-4.923376E-3,-8.8166455E-3,-2.857256E-2,-2.000076E-2,-5.467582E-3,-2.0111173E-2,-2.8948924E-2,4.314365E-2,-1.7369216E-2,-2.522619E-2,-5.2841664E-3,-1.2028831E-2,-1.7178213E-2,3.0321404E-2,-1.63195E-2,-2.8180528E-2,-1.6807428E-2,-9.6436795E-3,-2.041821E-2,-2.8264618E-2,-1.6359366E-2,4.686696E-3,-2.1358777E-2,-2.7731225E-2,-2.841552E-2,-3.354427E-2],"categories":[],"categories_nodes":[],"categories_segments":[],"categories_sizes":[],"default_left":[0,0,0,0,0,0,0,0,0,0,0,0,0,0,0,0,0,0,0,0,0,0,0,0,0,0,0,0,0,0,0,0,0,0,0,0,0,0,0,0,0,0,0,0,0,0,0,0,0,0,0,0,0,0,0,0,0],"id":22,"left_children":[1,3,5,7,9,11,13,15,17,19,21,23,25,27,-1,29,31,33,35,37,39,41,43,45,47,49,51,53,55,-1,-1,-1,-1,-1,-1,-1,-1,-1,-1,-1,-1,-1,-1,-1,-1,-1,-1,-1,-1,-1,-1,-1,-1,-1,-1,-1,-1],"loss_changes":[2.4524492E3,1.0246515E3,5.466167E2,1.0823131E3,2.6700098E2,5.0247803E1,1.4472461E2,7.358555E2,2.3521436E2,4.705432E1,1.03428406E2,9.730469E1,4.2070557E1,4.086206E1,0E0,9.566666E1,4.1031433E1,4.028308E1,7.846556E1,7.1275635E0,2.4676514E1,6.568094E1,4.5324036E1,4.952466E1,4.2373352E1,1.1537231E1,1.340271E1,2.017334E1,4.0284424E0,0E0,0E0,0E0,0E0,0E0,0E0,0E0,0E0,0E0,0E0,0E0,0E0,0E0,0E0,0E0,0E0,0E0,0E0,0E0,0E0,0E0,0E0,0E0,0E0,0E0,0E0,0E0,0E0],"parents":[2147483647,0,0,1,1,2,2,3,3,4,4,5,5,6,6,7,7,8,8,9,9,10,10,11,11,12,12,13,13,15,15,16,16,17,17,18,18,19,19,20,20,21,21,22,22,23,23,24,24,25,25,26,26,27,27,28,28],"right_children":[2,4,6,8,10,12,14,16,18,20,22,24,26,28,-1,30,32,34,36,38,40,42,44,46,48,50,52,54,56,-1,-1,-1,-1,-1,-1,-1,-1,-1,-1,-1,-1,-1,-1,-1,-1,-1,-1,-1,-1,-1,-1,-1,-1,-1,-1,-1,-1],"split_conditions":[6E-1,2E0,6.666667E-1,2E0,1.2E0,2.2E0,1E0,3.3333334E-1,1.2E0,4E-1,3E0,1E0,1.2E0,3E0,-3.403683E-2,1.2E0,1.2E0,4E-1,3E0,5E-1,3E0,3.3333334E-1,5E-1,2.6E0,1E0,2.8E0,5.2E0,2.8E0,4E0,5.562255E-3,6.344215E-4,-4.923376E-3,-8.8166455E-3,-2.857256E-2,-2.000076E-2,-5.467582E-3,-2.0111173E-2,-2.8948924E-2,4.314365E-2,-1.7369216E-2,-2.522619E-2,-5.2841664E-3,-1.2028831E-2,-1.7178213E-2,3.0321404E-2,-1.63195E-2,-2.8180528E-2,-1.6807428E-2,-9.6436795E-3,-2.041821E-2,-2.8264618E-2,-1.6359366E-2,4.686696E-3,-2.1358777E-2,-2.7731225E-2,-2.841552E-2,-3.354427E-2],"split_indices":[3,1,3,0,0,1,3,3,1,0,1,1,0,0,0,0,0,1,0,3,1,3,3,0,0,1,1,1,0,0,0,0,0,0,0,0,0,0,0,0,0,0,0,0,0,0,0,0,0,0,0,0,0,0,0,0,0],"split_type":[0,0,0,0,0,0,0,0,0,0,0,0,0,0,0,0,0,0,0,0,0,0,0,0,0,0,0,0,0,0,0,0,0,0,0,0,0,0,0,0,0,0,0,0,0,0,0,0,0,0,0,0,0,0,0,0,0],"sum_hessian":[1.5926252E5,1.11241914E5,4.8020594E4,8.4559734E4,2.6682182E4,3.071067E4,1.7309926E4,7.220755E4,1.23521875E4,6.853026E3,1.9829154E4,2.260359E4,8.1070796E3,1.3196999E4,4.1129263E3,4.3819996E4,2.8387553E4,6.8216934E3,5.5304946E3,1.9559868E3,4.897039E3,1.4445462E4,5.3836934E3,8.634236E3,1.3969354E4,1.9179221E3,6.1891577E3,1.1367358E4,1.8296409E3,2.8871709E4,1.4948285E4,1.724135E4,1.1146204E4,1.9137388E3,4.9079546E3,4.37433E3,1.1561648E3,1.953392E3,2.594914E0,3.4847307E3,1.4123085E3,7.3188496E3,7.1266123E3,5.333868E3,4.982509E1,7.6377285E3,9.9650775E2,2.5206594E3,1.1448693E4,9.0217114E2,1.015751E3,6.1129634E3,7.619396E1,9.933142E3,1.4342164E3,1.1865083E3,6.4313257E2],"tree_param":{"num_deleted":"0","num_feature":"6","num_nodes":"57","size_leaf_vector":"1"}},{"base_weights":[1.4587262E-3,-1.9258393E-2,1.5569998E-1,-3.122256E-2,1.19007215E-1,2.6651046E-1,1.1446238E-1,-5.73015E-2,-9.462788E-3,3.023184E-1,8.913086E-2,5.8833886E-2,2.6222974E-1,1.0000278E-1,3.1873432E-1,-5.567007E-2,-2.8937104E-1,5.990152E-1,-1.5163269E-2,1.3113932E-1,5.2122134E-1,2.5145027E-1,5.562278E-2,-3.4066256E-2,2.6503423E-1,4.7037733E-1,9.7349815E-2,3.0080068E-1,5.6802362E-2,-3.580621E-3,-1.8465406E-3,2.81075E-2,-3.0834217E-2,2.59257E-2,5.6825764E-2,4.6849446E-3,-1.1784368E-3,1.9028977E-2,5.7979967E-3,2.5693556E-2,5.690794E-2,1.5207271E-2,8.265726E-3,3.292049E-3,-1.3428447E-2,1.5737288E-2,1.252681E-2,2.6271865E-2,-6.3083293E-3,-3.5329316E-2,4.932623E-3,2.515854E-2,1.3824209E-2],"categories":[],"categories_nodes":[],"categories_segments":[],"categories_sizes":[],"default_left":[0,0,0,0,0,0,0,0,0,0,0,0,0,0,0,0,0,0,0,0,0,0,0,0,0,0,0,0,0,0,0,0,0,0,0,0,0,0,0,0,0,0,0,0,0,0,0,0,0,0,0,0,0],"id":23,"left_children":[1,3,5,7,9,11,13,15,17,19,21,-1,23,25,27,29,31,33,35,37,39,41,43,-1,45,47,49,51,-1,-1,-1,-1,-1,-1,-1,-1,-1,-1,-1,-1,-1,-1,-1,-1,-1,-1,-1,-1,-1,-1,-1,-1,-1],"loss_changes":[5.3003424E2,2.4190416E2,8.972122E1,7.637338E1,6.3753967E1,2.044342E1,4.225319E1,2.3161072E1,2.5450139E2,6.107242E1,5.445923E1,0E0,1.4212219E1,1.30924835E1,1.3523087E1,1.8158585E1,1.19388306E2,2.8877441E1,6.651623E1,3.4278584E0,2.6604767E0,7.7268677E0,2.7522152E1,0E0,3.7320251E0,3.1811771E0,1.3974144E1,4.4224625E0,0E0,0E0,0E0,0E0,0E0,0E0,0E0,0E0,0E0,0E0,0E0,0E0,0E0,0E0,0E0,0E0,0E0,0E0,0E0,0E0,0E0,0E0,0E0,0E0,0E0],"parents":[2147483647,0,0,1,1,2,2,3,3,4,4,5,5,6,6,7,7,8,8,9,9,10,10,12,12,13,13,14,14,15,15,16,16,17,17,18,18,19,19,20,20,21,21,22,22,24,24,25,25,26,26,27,27],"right_children":[2,4,6,8,10,12,14,16,18,20,22,-1,24,26,28,30,32,34,36,38,40,42,44,-1,46,48,50,52,-1,-1,-1,-1,-1,-1,-1,-1,-1,-1,-1,-1,-1,-1,-1,-1,-1,-1,-1,-1,-1,-1,-1,-1,-1],"split_conditions":[6.666667E-1,3E0,1E0,3.3333334E-1,2E-1,7.5E-1,4.2E0,2.5E-1,4E-1,3.8E0,3.2E0,5.8833886E-2,8E-1,7.5E-1,6.4E0,1.2E0,1E0,2E0,2E-1,1.5396208E3,7E0,5E-1,5.4E0,-3.4066256E-2,1.6234468E3,1.8367987E3,8E-1,1.5728475E3,5.6802362E-2,-3.580621E-3,-1.8465406E-3,2.81075E-2,-3.0834217E-2,2.59257E-2,5.6825764E-2,4.6849446E-3,-1.1784368E-3,1.9028977E-2,5.7979967E-3,2.5693556E-2,5.690794E-2,1.5207271E-2,8.265726E-3,3.292049E-3,-1.3428447E-2,1.5737288E-2,1.252681E-2,2.6271865E-2,-6.3083293E-3,-3.5329316E-2,4.932623E-3,2.515854E-2,1.3824209E-2],"split_indices":[3,0,0,3,3,3,0,3,3,0,0,0,3,3,0,0,0,0,0,5,0,3,0,0,4,4,3,4,0,0,0,0,0,0,0,0,0,0,0,0,0,0,0,0,0,0,0,0,0,0,0,0,0],"split_type":[0,0,0,0,0,0,0,0,0,0,0,0,0,0,0,0,0,0,0,0,0,0,0,0,0,0,0,0,0,0,0,0,0,0,0,0,0,0,0,0,0,0,0,0,0,0,0,0,0,0,0,0,0],"sum_hessian":[1.6587042E5,1.4623019E5,1.9640227E4,1.3458527E5,1.1644932E4,5.325227E3,1.4315E4,6.12163E4,7.336896E4,1.6306565E3,1.0014275E4,2.3646523E1,5.3015806E3,1.3370074E4,9.4492523E2,6.079019E4,4.2611017E2,6.80006E2,7.268895E4,9.159755E2,7.1468097E2,1.7124318E3,8.301843E3,1.4993988E1,5.2865864E3,9.383379E1,1.327624E4,9.2597534E2,1.89499E1,3.2844793E4,2.7945396E4,1.1811386E2,3.079963E2,5.931367E2,8.686924E1,5.209446E3,6.747951E4,5.116232E1,8.6481323E2,7.080778E2,6.603157E0,1.0608849E3,6.5154694E2,8.0489453E3,2.5289792E2,1.1889946E3,4.097592E3,8.601404E1,7.819751E0,2.0601171E1,1.325564E4,9.721629E1,8.2875903E2],"tree_param":{"num_deleted":"0","num_feature":"6","num_nodes":"53","size_leaf_vector":"1"}},{"base_weights":[1.6401453E-1,6.674978E-2,2.2776413E-1,2.2919938E-2,2.1412903E-1,1.9069733E-1,2.8246838E-1,-1.0077589E-2,1.8111695E-1,2.181203E-1,-3.3213366E-2,1.8348666E-1,3.959771E-1,2.6649544E-1,4.5324025E-1,-9.381452E-2,3.1142296E-2,5.1869285E-1,1.7239012E-1,1.2709928E-1,2.4076138E-1,9.4690375E-2,1.9678782E-1,2.9479712E-1,6.278825E-1,2.6279032E-1,6.1973345E-1,6.579928E-1,3.7965116E-1,1.4701551E-3,-5.8650915E-3,2.0064218E-3,-1.6326748E-2,3.3272933E-2,2.0963918E-2,8.943546E-3,-2.5410742E-2,3.5621305E-3,1.0871666E-2,1.2469691E-2,-4.326632E-3,-1.6931657E-3,9.819432E-3,9.058545E-3,1.1769365E-2,1.6234139E-2,-2.4234753E-2,3.0553758E-2,5.9909202E-2,1.2811874E-2,2.0093586E-2,3.9565705E-2,1.0931281E-2,3.606911E-2,1.97926E-2,1.964771E-2,-1.0684312E-2],"categories":[],"categories_nodes":[],"categories_segments":[],"categories_sizes":[],"default_left":[0,0,0,0,0,0,0,0,0,0,0,0,0,0,0,0,0,0,0,0,0,0,0,0,0,0,0,0,0,0,0,0,0,0,0,0,0,0,0,0,0,0,0,0,0,0,0,0,0,0,0,0,0,0,0,0,0],"id":24,"left_children":[1,3,5,7,9,11,13,15,17,19,-1,21,23,25,27,29,31,33,35,37,39,41,43,45,47,49,51,53,55,-1,-1,-1,-1,-1,-1,-1,-1,-1,-1,-1,-1,-1,-1,-1,-1,-1,-1,-1,-1,-1,-1,-1,-1,-1,-1,-1,-1],"loss_changes":[1.0672974E3,4.4023236E2,2.1078613E2,2.742207E2,5.4914734E1,9.167749E1,1.1443262E2,1.5003142E2,2.6619324E1,3.201947E1,0E0,7.070886E1,4.9149048E1,5.0102783E1,5.385205E1,4.1499855E1,9.363616E1,3.0472374E0,3.907953E1,1.5626621E1,3.520587E1,1.02026634E2,3.1351929E1,3.4302635E1,5.3812103E0,3.453784E1,2.7213165E1,1.5466278E1,2.095105E1,0E0,0E0,0E0,0E0,0E0,0E0,0E0,0E0,0E0,0E0,0E0,0E0,0E0,0E0,0E0,0E0,0E0,0E0,0E0,0E0,0E0,0E0,0E0,0E0,0E0,0E0,0E0,0E0],"parents":[2147483647,0,0,1,1,2,2,3,3,4,4,5,5,6,6,7,7,8,8,9,9,11,11,12,12,13,13,14,14,15,15,16,16,17,17,18,18,19,19,20,20,21,21,22,22,23,23,24,24,25,25,26,26,27,27,28,28],"right_children":[2,4,6,8,10,12,14,16,18,20,-1,22,24,26,28,30,32,34,36,38,40,42,44,46,48,50,52,54,56,-1,-1,-1,-1,-1,-1,-1,-1,-1,-1,-1,-1,-1,-1,-1,-1,-1,-1,-1,-1,-1,-1,-1,-1,-1,-1,-1,-1],"split_conditions":[4E-1,2E0,5E-1,5E-1,3.3333334E-1,1E0,1E0,2E-1,6E-1,2.2E0,-3.3213366E-2,2E-1,3.3333334E-1,1E0,7.5E-1,2E-1,2.5E-1,8E-1,2.5E-1,2.5E-1,5E0,5E-1,2E0,5E0,4.8E0,3.8E0,7.5E-1,3E0,5E0,1.4701551E-3,-5.8650915E-3,2.0064218E-3,-1.6326748E-2,3.3272933E-2,2.0963918E-2,8.943546E-3,-2.5410742E-2,3.5621305E-3,1.0871666E-2,1.2469691E-2,-4.326632E-3,-1.6931657E-3,9.819432E-3,9.058545E-3,1.1769365E-2,1.6234139E-2,-2.4234753E-2,3.0553758E-2,5.9909202E-2,1.2811874E-2,2.0093586E-2,3.9565705E-2,1.0931281E-2,3.606911E-2,1.97926E-2,1.964771E-2,-1.0684312E-2],"split_indices":[2,0,3,3,2,2,3,2,3,0,0,3,3,2,2,0,2,0,2,3,0,2,0,0,0,0,3,0,0,0,0,0,0,0,0,0,0,0,0,0,0,0,0,0,0,0,0,0,0,0,0,0,0,0,0,0,0],"split_type":[0,0,0,0,0,0,0,0,0,0,0,0,0,0,0,0,0,0,0,0,0,0,0,0,0,0,0,0,0,0,0,0,0,0,0,0,0,0,0,0,0,0,0,0,0,0,0,0,0,0,0,0,0,0,0,0,0],"sum_hessian":[1.7212984E5,6.815132E4,1.0397852E5,5.2530246E4,1.5621072E4,6.1983723E4,4.19948E4,4.3465027E4,9.065218E3,1.5551162E4,6.9910065E1,5.9882195E4,2.10153E3,3.840518E4,3.5896213E3,1.43375205E4,2.9127508E4,2.269709E2,8.838247E3,3.0990522E3,1.245211E4,7.8024575E3,5.207974E4,1.464738E3,6.36792E2,3.8008254E4,3.969254E2,9.469391E2,2.6426824E3,2.295382E3,1.2042139E4,2.8414521E4,7.1298724E2,8.9357864E1,1.3761304E2,8.755612E3,8.2634476E1,1.916069E3,1.1829833E3,1.2132355E4,3.1975467E2,3.4465037E3,4.3559536E3,3.7082324E4,1.4997413E4,1.4112157E3,5.3522358E1,6.205746E2,1.621741E1,3.6300777E4,1.7074763E3,2.77323E2,1.196024E2,7.61134E2,1.8580513E2,2.5850613E3,5.762115E1],"tree_param":{"num_deleted":"0","num_feature":"6","num_nodes":"57","size_leaf_vector":"1"}},{"base_weights":[-1.8000641E-1,-9.4356366E-2,-3.769312E-1,4.4633638E-2,-2.2226639E-1,-2.9466534E-1,-5.208312E-1,9.712171E-2,-2.4479033E-1,-1.7706423E-1,-5.4822993E-1,-3.5946408E-1,-2.6917607E-1,-4.7000027E-1,-6.8291944E-1,2.2762433E-1,4.8866656E-2,-1.7270626E-1,-3.974952E-1,-9.3582965E-2,-2.1769579E-1,-5.0491494E-1,-3.3878334E-2,-3.6383498E-1,-1.8410929E-1,-2.1695176E-1,-3.5892525E-1,-5.622354E-1,-4.3586987E-1,-3.4897305E-2,-3.3398867E-2,8.6610075E-3,2.5528615E-2,1.0456591E-2,1.0108661E-3,-1.0725202E-2,-1.2676022E-3,-2.2281269E-2,-8.84553E-3,5.039254E-4,-1.1920932E-2,-1.1215183E-2,1.838629E-2,-2.4292385E-2,-3.108455E-2,-2.0283505E-2,-1.757625E-2,-6.935672E-3,-3.171828E-2,-1.0681845E-2,-3.325827E-2,-1.8148622E-2,-1.2433946E-3,-3.0177278E-2,-2.6573999E-2,-2.0438518E-2,-3.0159155E-2],"categories":[],"categories_nodes":[],"categories_segments":[],"categories_sizes":[],"default_left":[0,0,0,0,0,0,0,0,0,0,0,0,0,0,0,0,0,0,0,0,0,0,0,0,0,0,0,0,0,0,0,0,0,0,0,0,0,0,0,0,0,0,0,0,0,0,0,0,0,0,0,0,0,0,0,0,0],"id":25,"left_children":[1,3,5,7,9,11,13,15,17,19,21,23,25,27,29,31,33,35,37,39,41,43,-1,45,47,49,51,53,55,-1,-1,-1,-1,-1,-1,-1,-1,-1,-1,-1,-1,-1,-1,-1,-1,-1,-1,-1,-1,-1,-1,-1,-1,-1,-1,-1,-1],"loss_changes":[2.6760938E3,1.965811E3,5.691592E2,8.050486E2,8.483323E2,5.0446045E1,1.4379492E2,2.8247897E2,8.948181E1,1.7151514E2,3.8941406E1,6.552368E0,1.0287891E2,4.1683105E1,4.708252E-1,1.8631262E2,1.5036752E2,3.4043854E1,2.7610016E1,2.4859445E2,1.316637E2,1.1402832E1,0E0,4.196045E0,4.246284E0,2.0492798E1,1.091333E1,4.2452393E0,4.385254E1,0E0,0E0,0E0,0E0,0E0,0E0,0E0,0E0,0E0,0E0,0E0,0E0,0E0,0E0,0E0,0E0,0E0,0E0,0E0,0E0,0E0,0E0,0E0,0E0,0E0,0E0,0E0,0E0],"parents":[2147483647,0,0,1,1,2,2,3,3,4,4,5,5,6,6,7,7,8,8,9,9,10,10,11,11,12,12,13,13,14,14,15,15,16,16,17,17,18,18,19,19,20,20,21,21,23,23,24,24,25,25,26,26,27,27,28,28],"right_children":[2,4,6,8,10,12,14,16,18,20,22,24,26,28,30,32,34,36,38,40,42,44,-1,46,48,50,52,54,56,-1,-1,-1,-1,-1,-1,-1,-1,-1,-1,-1,-1,-1,-1,-1,-1,-1,-1,-1,-1,-1,-1,-1,-1,-1,-1,-1,-1],"split_conditions":[6E-1,3.3333334E-1,6.666667E-1,2.2E0,6.666667E-1,1E0,1E0,2E-1,3E0,2.5E-1,1E0,6.666667E-1,2.2E0,4E-1,6.666667E-1,2E-1,2E-1,2.5E-1,3.3333334E-1,6E-1,5E-1,3E0,-3.3878334E-2,2E-1,1E0,1E0,5.2E0,2E-1,3E0,-3.4897305E-2,-3.3398867E-2,8.6610075E-3,2.5528615E-2,1.0456591E-2,1.0108661E-3,-1.0725202E-2,-1.2676022E-3,-2.2281269E-2,-8.84553E-3,5.039254E-4,-1.1920932E-2,-1.1215183E-2,1.838629E-2,-2.4292385E-2,-3.108455E-2,-2.0283505E-2,-1.757625E-2,-6.935672E-3,-3.171828E-2,-1.0681845E-2,-3.325827E-2,-1.8148622E-2,-1.2433946E-3,-3.0177278E-2,-2.6573999E-2,-2.0438518E-2,-3.0159155E-2],"split_indices":[2,3,2,0,3,0,2,2,0,2,3,3,0,3,3,3,3,2,2,3,2,0,0,0,3,3,0,3,0,0,0,0,0,0,0,0,0,0,0,0,0,0,0,0,0,0,0,0,0,0,0,0,0,0,0,0,0],"split_type":[0,0,0,0,0,0,0,0,0,0,0,0,0,0,0,0,0,0,0,0,0,0,0,0,0,0,0,0,0,0,0,0,0,0,0,0,0,0,0,0,0,0,0,0,0,0,0,0,0,0,0,0,0,0,0,0,0],"sum_hessian":[1.586633E5,1.10572586E5,4.8090723E4,5.2991473E4,5.758111E4,3.060008E4,1.749064E4,4.4857137E4,8.134337E3,5.056999E4,7.011122E3,8.635027E3,2.1965055E4,1.3318006E4,4.172635E3,1.2108034E4,3.2749102E4,5.52731E3,2.6070269E3,1.6556484E4,3.4013504E4,5.2558403E3,1.7552819E3,8.423976E3,2.1105125E2,1.3887467E4,8.0775874E3,3.5929143E3,9.725092E3,2.0576475E3,2.114987E3,1.0156745E4,1.9512888E3,4.9655244E3,2.7783576E4,4.3055605E3,1.2217498E3,2.1392383E3,4.6778848E2,9.65043E3,6.906055E3,3.3634477E4,3.7902792E2,4.5225547E3,7.332855E2,1.9079409E3,6.5160347E3,1.9290973E2,1.8141516E1,1.37869795E4,1.0048769E2,7.980811E3,9.6775986E1,1.5254016E3,2.0675127E3,8.372458E3,1.3526335E3],"tree_param":{"num_deleted":"0","num_feature":"6","num_nodes":"57","size_leaf_vector":"1"}},{"base_weights":[1.5531277E-3,-2.0435847E-2,1.665204E-1,-3.3710018E-2,9.132122E-2,2.7470168E-1,1.2707512E-1,-6.277948E-2,-9.142346E-3,2.1095897E-1,7.31938E-2,5.857857E-2,2.7149943E-1,1.09736875E-1,3.6677906E-1,-6.151456E-2,-2.4705991E-1,5.8907855E-1,-1.4836055E-2,6.43349E-2,4.935505E-1,8.038707E-2,-2.9433236E-1,-3.3587806E-2,2.744567E-1,4.860911E-1,1.0716929E-1,3.4813333E-1,5.7998892E-2,-3.8302056E-3,-2.1392044E-3,2.7806673E-2,-2.8737111E-2,2.0824535E-2,3.9748866E-2,1.160002E-3,-1.7311582E-3,-2.9082992E-3,9.727836E-3,2.5258327E-2,-3.6128068E-3,3.8746644E-3,2.127462E-2,-3.246194E-2,-3.3297387E-4,1.4557953E-2,1.1235727E-2,1.9309355E-2,3.9672118E-2,-3.4855403E-2,5.4203314E-3,1.906091E-2,1.0612408E-2],"categories":[],"categories_nodes":[],"categories_segments":[],"categories_sizes":[],"default_left":[0,0,0,0,0,0,0,0,0,0,0,0,0,0,0,0,0,0,0,0,0,0,0,0,0,0,0,0,0,0,0,0,0,0,0,0,0,0,0,0,0,0,0,0,0,0,0,0,0,0,0,0,0],"id":26,"left_children":[1,3,5,7,9,11,13,15,17,19,21,-1,23,25,27,29,31,33,35,37,39,41,43,-1,45,47,49,51,-1,-1,-1,-1,-1,-1,-1,-1,-1,-1,-1,-1,-1,-1,-1,-1,-1,-1,-1,-1,-1,-1,-1,-1,-1],"loss_changes":[6.0191125E2,2.1720822E2,8.324524E1,9.3464096E1,3.3696854E1,1.4655914E1,5.940526E1,1.3957672E1,2.4160043E2,8.469729E1,3.5716164E1,0E0,1.4680023E1,1.2838638E1,1.3859116E1,1.6823761E1,1.0778708E2,2.3433182E1,5.2881294E1,2.1506699E1,4.6266937E0,1.3191803E1,2.6477913E1,0E0,4.238983E0,2.4604492E0,1.326236E1,4.161522E0,0E0,0E0,0E0,0E0,0E0,0E0,0E0,0E0,0E0,0E0,0E0,0E0,0E0,0E0,0E0,0E0,0E0,0E0,0E0,0E0,0E0,0E0,0E0,0E0,0E0],"parents":[2147483647,0,0,1,1,2,2,3,3,4,4,5,5,6,6,7,7,8,8,9,9,10,10,12,12,13,13,14,14,15,15,16,16,17,17,18,18,19,19,20,20,21,21,22,22,24,24,25,25,26,26,27,27],"right_children":[2,4,6,8,10,12,14,16,18,20,22,-1,24,26,28,30,32,34,36,38,40,42,44,-1,46,48,50,52,-1,-1,-1,-1,-1,-1,-1,-1,-1,-1,-1,-1,-1,-1,-1,-1,-1,-1,-1,-1,-1,-1,-1,-1,-1],"split_conditions":[6.666667E-1,2.8E0,1E0,3.3333334E-1,2E-1,7.5E-1,4.2E0,2.5E-1,4E-1,3.8E0,5.4E0,5.857857E-2,8E-1,7.5E-1,6.4E0,1.2E0,1E0,1.2E0,1E0,3.2E0,6.8E0,5.2E0,5.8E0,-3.3587806E-2,1.766167E3,2.8E0,8E-1,5.2E0,5.7998892E-2,-3.8302056E-3,-2.1392044E-3,2.7806673E-2,-2.8737111E-2,2.0824535E-2,3.9748866E-2,1.160002E-3,-1.7311582E-3,-2.9082992E-3,9.727836E-3,2.5258327E-2,-3.6128068E-3,3.8746644E-3,2.127462E-2,-3.246194E-2,-3.3297387E-4,1.4557953E-2,1.1235727E-2,1.9309355E-2,3.9672118E-2,-3.4855403E-2,5.4203314E-3,1.906091E-2,1.0612408E-2],"split_indices":[2,0,0,2,2,2,0,2,2,0,0,0,2,2,0,0,0,0,0,0,0,0,0,0,5,0,2,0,0,0,0,0,0,0,0,0,0,0,0,0,0,0,0,0,0,0,0,0,0,0,0,0,0],"split_type":[0,0,0,0,0,0,0,0,0,0,0,0,0,0,0,0,0,0,0,0,0,0,0,0,0,0,0,0,0,0,0,0,0,0,0,0,0,0,0,0,0,0,0,0,0,0,0,0,0,0,0,0,0],"sum_hessian":[1.6592988E5,1.464147E5,1.9515172E4,1.30870945E5,1.5543763E4,5.21279E3,1.4302383E4,5.9942734E4,7.092821E4,2.0438801E3,1.3499883E4,1.7247786E1,5.195542E3,1.3339005E4,9.6337787E2,5.9535414E4,4.07323E2,6.677454E2,7.026046E4,1.3464797E3,6.974003E2,1.3241499E4,2.5838318E2,1.5531314E1,5.1800107E3,8.9109375E1,1.32498955E4,9.426577E2,2.0720188E1,3.2970656E4,2.6564756E4,1.1782382E2,2.8949918E2,3.6490155E2,3.0284387E2,2.4043084E4,4.621738E4,6.9409314E2,6.5238666E2,6.8347577E2,1.3924567E1,1.31326045E4,1.08895355E2,1.1511149E2,1.4327168E2,3.874263E3,1.3057479E3,6.895286E1,2.0156517E1,1.9489052E1,1.3230406E4,7.5663043E2,1.860273E2],"tree_param":{"num_deleted":"0","num_feature":"6","num_nodes":"53","size_leaf_vector":"1"}},{"base_weights":[1.5541138E-1,6.554004E-2,2.1390027E-1,2.3699576E-2,2.0535226E-1,2.052294E-1,3.8256487E-1,-6.101714E-3,2.0064312E-1,2.0924215E-1,-3.291663E-2,1.7452732E-1,2.3502678E-1,3.953151E-1,-1.855739E-1,-6.779533E-2,2.5098491E-2,3.9666316E-1,1.700107E-1,4.102845E-1,1.9569919E-1,1.4911005E-1,2.0717645E-1,2.1703552E-1,2.8010046E-1,2.2175159E-1,4.455052E-1,-5.464594E-1,8.462141E-2,1.514694E-3,-4.3589054E-3,1.6991331E-3,-1.531824E-2,1.3281007E-2,2.4414642E-2,8.699895E-3,-3.3763092E-2,1.2341669E-2,2.6447633E-2,6.502653E-3,1.1542927E-2,5.5359323E-3,9.978518E-3,1.3793411E-2,9.591383E-3,2.2561671E-2,1.0686704E-2,1.404798E-2,-3.343805E-2,1.2758443E-2,-1.7983604E-2,1.6501598E-2,2.396738E-2,-3.5116475E-2,-2.3345679E-2,-2.3801163E-2,1.8854415E-2],"categories":[],"categories_nodes":[],"categories_segments":[],"categories_sizes":[],"default_left":[0,0,0,0,0,0,0,0,0,0,0,0,0,0,0,0,0,0,0,0,0,0,0,0,0,0,0,0,0,0,0,0,0,0,0,0,0,0,0,0,0,0,0,0,0,0,0,0,0,0,0,0,0,0,0,0,0],"id":27,"left_children":[1,3,5,7,9,11,13,15,17,19,-1,21,23,25,27,29,31,33,35,37,39,41,43,45,47,49,51,53,55,-1,-1,-1,-1,-1,-1,-1,-1,-1,-1,-1,-1,-1,-1,-1,-1,-1,-1,-1,-1,-1,-1,-1,-1,-1,-1,-1,-1],"loss_changes":[9.076221E2,3.9821582E2,1.5289062E2,2.7629086E2,5.281537E1,9.097217E1,3.711255E1,8.6319824E1,4.5282745E1,4.2421204E1,0E0,4.063391E1,4.087793E1,4.3467834E1,1.105621E1,2.8639122E1,8.771465E1,1.2117828E1,2.2137527E1,1.89608E1,3.3729553E1,5.3361145E1,2.255957E1,2.7804688E1,1.1925537E1,2.1927029E1,1.4998169E1,2.731285E-1,1.0908845E1,0E0,0E0,0E0,0E0,0E0,0E0,0E0,0E0,0E0,0E0,0E0,0E0,0E0,0E0,0E0,0E0,0E0,0E0,0E0,0E0,0E0,0E0,0E0,0E0,0E0,0E0,0E0,0E0],"parents":[2147483647,0,0,1,1,2,2,3,3,4,4,5,5,6,6,7,7,8,8,9,9,11,11,12,12,13,13,14,14,15,15,16,16,17,17,18,18,19,19,20,20,21,21,22,22,23,23,24,24,25,25,26,26,27,27,28,28],"right_children":[2,4,6,8,10,12,14,16,18,20,-1,22,24,26,28,30,32,34,36,38,40,42,44,46,48,50,52,54,56,-1,-1,-1,-1,-1,-1,-1,-1,-1,-1,-1,